--- fc1.weight ---
0.761875331401825 -2.5473062992095947 -2.6064412593841553 -1.3278592824935913 -1.22762131690979 0.48268166184425354 0.20066463947296143 0.9624108672142029 -1.0316201448440552 0.28737515211105347 1.4150358438491821 -1.542957067489624 -0.4341820180416107 3.128632068634033 3.0562632083892822 -0.10575736314058304 1.4110639095306396 -0.262859582901001 -0.9733319878578186 -0.1163347065448761 -1.5319476127624512 2.6248297691345215 -1.5369809865951538 -0.1876954734325409 -1.1889169216156006 -0.6981936097145081 -0.3500520884990692 -0.3495742380619049 1.729832649230957 1.2330892086029053 -0.2498774379491806 0.9468382596969604 0.44073566794395447 0.7324459552764893 0.47501784563064575 0.5283375978469849 -0.4295918345451355 -2.6978325843811035 -1.5407553911209106 -0.7192202806472778 -0.29705289006233215 0.0718478336930275 -1.006018042564392 0.9980934262275696 3.3086860179901123 0.6563923954963684 -0.6644848585128784 0.675738513469696 -1.0545364618301392 1.6730964183807373 4.937466144561768 1.2432693243026733 2.111984968185425 -3.521923542022705 0.016612965613603592 1.502851128578186 0.8832786679267883 2.0925633907318115 -0.15618303418159485 -0.8204841613769531 -0.3154240846633911 -1.2901750802993774 0.19060580432415009 -1.9633958339691162 0.9152600169181824 0.2838640809059143 -0.029404399916529655 -1.419997215270996 0.7224523425102234 -0.6721829175949097 -2.8320839405059814 0.7330474853515625 0.6939435601234436 1.4739092588424683 -0.5076285004615784 -3.1089859008789062 1.06007981300354 -0.9225406050682068 1.2338677644729614 -0.3634532392024994 -1.2331304550170898 -0.830044686794281 0.8088414072990417 2.651606321334839 0.33208826184272766 -0.12760965526103973 -0.711004912853241 1.6683443784713745 -1.4354289770126343 -1.4369510412216187 3.405313491821289 -0.34566986560821533 0.42336034774780273 -4.857544898986816 1.855341911315918 -0.0441032275557518 -0.9861321449279785 3.2111117839813232 -0.5180020332336426 -2.0182976722717285 -0.6083418130874634 1.0848193168640137 -1.4040334224700928 -0.555297315120697 -3.4567365646362305 0.703855037689209 -0.10533460974693298 0.9731312394142151 0.9603729844093323 -0.06611377000808716 0.18180833756923676 0.8439313173294067 0.8931659460067749 0.3976227939128876 1.914569616317749 0.47959622740745544 0.07152394205331802 0.8161967992782593 0.1982211321592331 -0.06172790378332138 0.95052170753479 1.42344069480896 0.7657644152641296 1.0066158771514893 -1.6402896642684937 -1.8924617767333984 0.32236847281455994 -0.016777753829956055 0.898708701133728 -0.06716523319482803 -3.8971872329711914 0.7832180261611938 1.8307749032974243 -3.172776460647583 -2.0909810066223145 2.0138659477233887 -2.3335518836975098 -1.5330445766448975 -3.097593069076538 -1.8491512537002563 -4.261663436889648 0.11568150669336319 -0.6598386764526367 0.37075304985046387 -0.009102819487452507 2.0778465270996094 -0.8429140448570251 -0.8812353610992432 -0.0838465690612793 0.2889013886451721 1.628708004951477 -1.5497570037841797 -0.180543914437294 -1.5960159301757812 0.12306161224842072 0.6927506923675537 1.071836233139038 -1.6748629808425903 -0.20530793070793152 -0.6201530694961548 -2.43627667427063 1.0627926588058472 1.0745255947113037 0.3463224470615387 0.7649680972099304 2.262018918991089 -0.2048991471529007 -2.2958662509918213 1.0291011333465576 0.6866924166679382 -0.07077999413013458 0.5192005634307861 0.2948950529098511 1.0739582777023315 -0.5730718374252319 2.4324233531951904 -1.5687274932861328 0.9732069969177246 2.0375936031341553 1.1244466304779053 -0.992555558681488 -0.7517892122268677 1.3327797651290894 -0.11903321743011475 2.3638851642608643 1.1012355089187622 0.03134556859731674 -2.8361623287200928 -1.2153083086013794 0.893595278263092 0.8479369878768921 0.6249998807907104 1.4492440223693848 1.2978585958480835 0.3274186849594116 0.27826443314552307 -0.5796833038330078 -1.6911976337432861 0.5619742274284363 -0.5943751931190491 -1.9434741735458374 -0.058095864951610565 -2.3376224040985107 -1.695538878440857 -2.402766466140747 -1.3968956470489502 -0.30494529008865356 0.31071072816848755 -2.0802314281463623 -0.21376226842403412 -0.17006812989711761 -0.3697763681411743 0.5685891509056091 -0.25528645515441895 -2.021080493927002 3.72717022895813 -0.5867858529090881 0.04284508898854256 -1.2077020406723022 1.4728734493255615 0.0862259715795517 -4.431037902832031 2.3375186920166016 2.7507596015930176 -1.5948524475097656 -1.6040769815444946 -1.1468050479888916 -0.7264063954353333 -0.1317783147096634 1.3510875701904297 -4.186771392822266 1.4306364059448242 1.3793258666992188 -0.6570974588394165 0.2325182855129242 0.9411680102348328 -0.09046352654695511 1.510230302810669 -0.5510615706443787 1.929639220237732 0.6245812773704529 1.3291563987731934 -0.22453492879867554 2.348649740219116 1.6506962776184082 3.246004581451416 2.2124805450439453 1.6927722692489624 0.9269292950630188 -0.8278109431266785 -3.424168825149536 -1.6049408912658691 -1.3804506063461304 -0.5689753293991089 -0.33086341619491577 -0.41279542446136475 -0.96327143907547 -0.5803778767585754 -0.23125363886356354 0.41258466243743896 -0.6448400020599365 0.7680752277374268 -1.971049189567566 1.4161957502365112 -0.9858145713806152 0.18078240752220154 0.7420838475227356 0.989467978477478 -0.7854276299476624 3.505443811416626 -0.21130488812923431 -0.47500142455101013 -1.5416359901428223 -0.9999249577522278 -0.12114531546831131 0.6098540425300598 -2.376891851425171 1.639902949333191 0.3491046130657196 -2.039254665374756 -0.654715895652771 -0.4849119484424591 4.417201519012451 -0.20387108623981476 1.222555160522461 0.9807562232017517 -1.7538797855377197 0.8629440069198608 0.4847070574760437 2.101919651031494 1.4079164266586304 0.4846998453140259 1.040679931640625 -0.05132240429520607 0.07083065807819366 -0.46833309531211853 -2.4840872287750244 -0.5658082365989685 0.010620666667819023 1.6052528619766235 1.0530132055282593 -1.5065590143203735 0.9206206202507019 0.7834084630012512 0.7515950202941895 0.0828891396522522 0.7079038619995117 0.04080891236662865 -0.29452988505363464 1.2545467615127563 -0.8858292102813721 -1.6385432481765747 2.5549747943878174 0.21510173380374908 -1.3992199897766113 -0.12181119620800018 -0.649578869342804 -4.969123840332031 0.8047658205032349 -0.4005208909511566 0.4675653874874115 0.7393238544464111 -0.5407423973083496 -0.005660082679241896 -0.1255044788122177 0.7191050052642822 -0.932418704032898 8.018547669053078e-05 -0.34384825825691223 -0.13533972203731537 -0.007036450318992138 -1.0749192237854004 -0.17086860537528992 1.0126206874847412 0.39412105083465576 0.514329731464386 -0.5826122164726257 0.7226576209068298 0.19607019424438477 -0.08147080987691879 -0.5690187811851501 0.31542062759399414 -0.4211488664150238 -0.7538325190544128 -0.04609714075922966 6.595983982086182 -0.6089910268783569 0.5186702013015747 0.09001771360635757 0.12827423214912415 1.292338490486145 -1.194202184677124 -1.8206580877304077 0.7117318511009216 1.9245045185089111 0.7596520781517029 0.22622331976890564 1.6607465744018555 0.9614973068237305 0.3226418197154999 2.0332698822021484 -0.044952597469091415 0.21558277308940887 -0.07512456178665161 1.5440698862075806 -0.1808042824268341 -0.6454371809959412 0.4128711521625519 1.6217912435531616 0.5934930443763733 -0.7825753092765808 -2.43108868598938 -0.9142119884490967 -1.1807246208190918 0.13244570791721344 0.08744806796312332 0.1021861657500267 1.7530322074890137 -2.7668721675872803 -0.4857468903064728 -0.8153109550476074 0.03464191034436226 0.5837500691413879 0.5736826062202454 2.0856494903564453 -1.80324387550354 0.09294158965349197 -0.04536060988903046 -1.1049931049346924 -0.10070431977510452 0.9469336867332458 1.7601455450057983 -1.3471243381500244 0.2894735038280487 0.2547354996204376 -0.7708456516265869 -1.6273037195205688 -4.434854030609131 0.5731505751609802 -3.1819515228271484 1.6459084749221802 3.544532060623169 0.01464677695184946 -2.355536699295044 2.3313424587249756 -1.329106330871582 2.3189902305603027 -0.006844553165137768 -1.2856203317642212 0.9823206663131714 -0.6332072019577026 -1.3117581605911255 2.476487398147583 -0.47225743532180786 1.6685317754745483 1.4583975076675415 2.2441210746765137 -1.1451321840286255 -1.2582396268844604 1.3805999755859375 -1.4025212526321411 -0.014818835072219372 -0.21106988191604614 3.5935192108154297 -0.20970161259174347 -0.9901987910270691 -1.0916659832000732 -1.0403159856796265 -0.3330295979976654 -1.0699124336242676 -0.39325860142707825 -1.245261311531067 1.3259450197219849 -0.5206207036972046 0.018309254199266434 2.404313802719116 2.3802988529205322 2.027244806289673 -0.053240835666656494 -1.8439826965332031 0.3304451107978821 0.026264585554599762 -0.7663140296936035 1.166365623474121 -1.3037421703338623 -0.2903987765312195 -1.9533209800720215 -0.6520000100135803 -1.2531925439834595 1.5809391736984253 -0.053872525691986084 1.1011730432510376 -0.7275584936141968 1.6341896057128906 -0.3290252089500427 1.958583116531372 -0.21846841275691986 -2.35685658454895 -2.0830061435699463 0.07597079128026962 -1.2851353883743286 -0.001366644399240613 -2.6955459117889404 0.658933162689209 1.6759577989578247 0.945880115032196 -0.5171786546707153 -0.6849066615104675 -0.5131053328514099 2.080043315887451 -0.4698933959007263 -2.3513574600219727 0.2395462542772293 0.420551061630249 -1.2440272569656372 -0.6821204423904419 -0.9643905758857727 0.006000516004860401 0.7333693504333496 -1.3258165121078491 -0.36495980620384216 0.4431787133216858 -0.926295816898346 1.9388564825057983 -1.854572057723999 -1.567001461982727 0.5208219289779663 -0.9556903839111328 0.3914886713027954 1.7618968486785889 -0.2256404310464859 -1.7176228761672974 0.4219253361225128 1.8161067962646484 -2.2423312664031982 0.8557790517807007 1.2297252416610718 -0.5888754725456238 -1.6255980730056763 -1.987716555595398 0.6284126043319702 0.22601090371608734 1.8454463481903076 0.20864039659500122 -0.14708919823169708 -1.0734905004501343 -3.0411124229431152 1.8064948320388794 1.9077321290969849 -0.04901544377207756 1.4374910593032837 -0.07814512401819229 -0.025888554751873016 -1.3137097358703613 0.651991069316864 -0.6403718590736389 -0.17243441939353943 0.07966256141662598 1.4624173641204834 1.2852733135223389 1.1112524271011353 1.0501617193222046 1.191205620765686 -0.40124762058258057 1.3762879371643066 0.13308674097061157 1.1304450035095215 2.3384859561920166 -2.1992383003234863 -0.7352355718612671 -3.5566160678863525 -3.4202687740325928 0.19480784237384796 3.9398345947265625 -0.003893549321219325 -0.1829199492931366 -1.3957536220550537 0.4949103891849518 0.7431707382202148 -0.5294657349586487 0.5109193325042725 2.2001633644104004 -0.47602614760398865 -0.8261918425559998 0.8687974810600281 1.4845343828201294 0.1906508207321167 -0.2729886770248413 -4.388825416564941 -1.1755239963531494 0.1536136120557785 1.8540161848068237 -0.34918493032455444 -0.12036286294460297 1.0042773485183716 -4.505214214324951 -0.08290265500545502 -0.09805957227945328 1.4709162712097168 -0.9608814716339111 0.78940349817276 -0.17821331322193146 -1.1137630939483643 0.9926595687866211 1.7976040840148926 0.23851199448108673 0.13454020023345947 0.7403948307037354 0.21742433309555054 -1.5734152793884277 -2.1248040199279785 0.7160210013389587 -0.34056323766708374 1.9882270097732544 0.17713670432567596 -3.1445324420928955 2.3817436695098877 2.4938783645629883 -4.38440465927124 0.28558292984962463 0.7146313786506653 -3.4846465587615967 -0.11419945955276489 -2.0478808879852295 -2.5555922985076904 3.6033918857574463 -1.0699009895324707 2.279215097427368 -1.182499647140503 -0.015268594957888126 -0.1478453427553177 1.707748293876648 -1.0307246446609497 -1.7201913595199585 0.06855617463588715 -0.5661038160324097 0.5167796015739441 0.2296130210161209 -1.4649271965026855 -0.018414771184325218 -0.2259790301322937 2.219853162765503 2.951022148132324 1.1329089403152466 0.5786896347999573 -0.2787684202194214 0.9010773301124573 -0.3519933819770813 -0.8598644733428955 0.05650266632437706 -1.013805866241455 -0.41202807426452637 -0.43269264698028564 -0.8816061615943909 0.011867653578519821 0.28259167075157166 -4.459526538848877 0.784548819065094 -1.9781303405761719 -1.570334792137146 -1.3395421504974365 1.6588447093963623 -0.30927085876464844 -0.26468467712402344 2.14737868309021 0.41061902046203613 0.8483116030693054 0.9074187278747559 -1.2000868320465088 -0.666811466217041 0.33580315113067627 -1.3352410793304443 -0.5186856389045715 1.2747095823287964 0.6644759178161621 -0.19083842635154724 -1.1653738021850586 -0.14748233556747437 -1.102932095527649 -0.9554941058158875 0.9073320031166077 -0.6621937155723572 -2.348423719406128 -0.36058124899864197 0.4300321042537689 1.226338267326355 -0.10677818208932877 0.20368103682994843 0.3216622769832611 0.4988817274570465 1.3806841373443604 0.6125497221946716 0.063853919506073 2.328575849533081 1.4144518375396729 1.166224718093872 1.1663800477981567 0.36339929699897766 0.16803669929504395 -2.0654304027557373 -2.5906903743743896 -0.16555693745613098 -1.7667503356933594 1.1411547660827637 3.188032388687134 -3.8633100986480713 0.4895365834236145 0.08490882068872452 -1.1576335430145264 1.0272748470306396 0.10051863640546799 0.13551637530326843 -1.6702653169631958 -0.28132832050323486 -1.594067096710205 -1.6658345460891724 1.6591856479644775 -0.3060898780822754 -0.1992315649986267 0.9658960700035095 0.16611264646053314 -1.110571026802063 -2.230748414993286 1.3609744310379028 1.1055561304092407 2.806643486022949 1.6474556922912598 0.10538457334041595 -1.6575477123260498 0.022244561463594437 -2.344620704650879 -0.19493606686592102 0.22951968014240265 -0.15612056851387024 2.8514418601989746 -0.7344264388084412 -0.10399773716926575 0.23470905423164368 -0.33669978380203247 1.4979349374771118 2.2208428382873535 2.590073347091675 1.6117501258850098 2.627396583557129 -0.9113184213638306 0.18187226355075836 -1.450984001159668 -1.996465802192688 -0.25554797053337097 -0.8521679639816284 1.8743703365325928 0.22347119450569153 0.5417829751968384 -3.2039589881896973 -0.15998709201812744 -2.684154987335205 -1.7919869422912598 0.773752748966217 1.9193202257156372 -0.6552538871765137 -2.156378746032715 0.739657461643219 -2.187847852706909 -0.2177610844373703 1.5284690856933594 3.6593739986419678 -0.5710043907165527 0.8865342736244202 -0.6773010492324829 -1.3095998764038086 -0.12520305812358856 -0.5364696383476257 1.8954474925994873 0.17032480239868164 -3.308093786239624 -2.0082433223724365 0.5295702219009399 1.1685049533843994 0.0418415293097496 1.0485800504684448 -0.27575719356536865 0.5578238368034363 -0.48972585797309875 0.03167035058140755 0.5522217154502869 1.5923043489456177 -0.6844667196273804 1.2787048816680908 -4.180903911590576 -2.9156858921051025 -0.431297242641449 0.03756406158208847 -1.8041332960128784 -1.0735195875167847 4.106237411499023 -0.9688971042633057 -0.1301463544368744 2.166733741760254 2.8945164680480957 2.2513346672058105 1.8767457008361816 -2.067714214324951 -0.498298317193985 -0.8423259854316711 1.22499418258667 -2.152958869934082 -1.5310970544815063 1.1587854623794556 2.110116720199585 -0.353820264339447 1.9205782413482666 -1.0204493999481201 -0.5244306921958923 0.04867687076330185 0.6038730144500732 1.9155752658843994 -0.7421237826347351 -1.2749119997024536 0.0779651552438736 -1.8615000247955322 2.152805805206299 1.9959542751312256 0.7778213024139404 -0.4928021728992462 1.3391622304916382 1.6757559776306152 -0.5811740159988403 -0.40162673592567444 0.9985813498497009 0.6749910116195679 1.5919811725616455 -1.256093978881836 -1.0020124912261963 2.9507150650024414 -2.468763828277588 -0.7331744432449341 2.662844181060791 -2.0381345748901367 1.287692904472351 -1.013588547706604 3.7830679416656494 -1.529615879058838 -3.091372489929199 0.9957417845726013 2.3772435188293457 0.5227857232093811 -0.3038516938686371 -3.7582123279571533 0.6037237644195557 -1.0701221227645874 0.2803126573562622 -0.28707683086395264 2.904515266418457 -0.5809676647186279 -0.13723208010196686 -1.5907810926437378 0.8662857413291931 0.27811822295188904 1.2688425779342651 -1.0101356506347656 -0.5188204646110535 -0.9042968153953552 0.40271881222724915 -1.9187978506088257 0.6145542860031128 -0.3136575222015381 1.1509530544281006 -0.7509299516677856 2.3682782649993896 -1.0863037109375 -1.379235863685608 1.0625731945037842 1.9534971714019775 2.4524054527282715 0.13221998512744904 2.1437981128692627 1.8712639808654785 -0.13588257133960724 -0.22799576818943024 3.3757779598236084 2.087207555770874 -2.1405344009399414 -1.8602092266082764 0.6011015176773071 0.1397731453180313 1.0012613534927368 1.0179665088653564 -1.5978741645812988 0.6831722855567932 -4.071604251861572 -0.11028560996055603 -0.25243401527404785 -0.9483587145805359 1.1914211511611938 0.7894710302352905 -0.25689584016799927 -1.5389249324798584 -1.84373939037323 -0.473688542842865 -0.37639880180358887 1.1439162492752075 -2.2113142013549805 0.5417412519454956 0.27460992336273193 1.172014594078064 0.9011469483375549 2.262618064880371 0.7893614768981934 2.015580892562866 0.9025128483772278 0.017461447045207024 0.10410462319850922 -0.535227358341217 -1.1928178071975708 0.22241374850273132 -0.9809536337852478 0.3868488073348999 0.6692116260528564 -1.4832849502563477 -0.394394189119339 6.93377161026001 -1.4768296480178833 0.09107723087072372 1.517689824104309 -0.3063189387321472 2.709491014480591 -1.4533590078353882 0.703723132610321 -1.652755618095398 3.0224761962890625 0.90391606092453 1.7170523405075073 -0.9841966032981873 0.9401199817657471 -0.7180829644203186 -2.794771671295166 -0.11882385611534119 0.015224351547658443 -1.6518422365188599 -2.079244613647461 0.5197412967681885 -1.0121164321899414 -2.225475311279297 0.7468966841697693 -0.06963439285755157 2.6761298179626465 0.8285475969314575 1.6186447143554688 0.18672968447208405 -0.7574917674064636 0.5253430604934692 0.3633691072463989 1.953536868095398 1.3418214321136475 1.3325169086456299 0.6729696989059448 -1.0312232971191406 0.23130883276462555 0.21308092772960663 0.945858359336853 0.5143013596534729 0.49048861861228943 -0.09585839509963989 -1.34791100025177 -0.6889790892601013 2.2746622562408447 -1.7489128112792969 1.466247797012329 -2.6656298637390137 -1.604316234588623 1.7279003858566284 -0.6525107026100159 0.4531770646572113 1.0997815132141113 -0.5989679098129272 -0.1602972447872162 3.773749828338623 -1.182700753211975 -0.7214770913124084 -0.16023042798042297 0.5225522518157959 0.737893283367157 -0.7128739356994629 -0.9190911650657654 -3.3375980854034424 -0.9461355209350586 -0.7003383040428162 -0.03531321510672569 -0.13938432931900024 2.139707088470459 0.8943572044372559 -2.2271523475646973 0.5523516535758972 -0.024115771055221558 -1.0795388221740723 -0.33129632472991943 1.4277271032333374 -0.31941360235214233 -0.8688080310821533 -0.43469560146331787 -0.3946129083633423 0.386795312166214 0.7482748031616211 -0.453536719083786 1.705644965171814 -0.4212895333766937 -0.17292697727680206 0.4342622458934784 -2.3124096393585205 1.4230269193649292 -0.8908368349075317 0.254191130399704 0.44050928950309753 -0.862664520740509 -1.7933720350265503 -0.18726637959480286 0.6209418177604675 2.117302417755127 -0.011153722181916237 0.9181943535804749 3.7580556869506836 1.9528801441192627 -0.006385255139321089 0.17318008840084076 1.0431156158447266 -0.8818942308425903 1.8008298873901367 0.464592844247818 -0.8842449188232422 0.19645892083644867 -0.7256812453269958 0.07545174658298492 -1.3358917236328125 -0.4723612666130066 -1.4942713975906372 1.146325945854187 0.7038432359695435 1.4202646017074585 1.7663501501083374 -2.381632089614868 0.8968181014060974 1.943928599357605 1.5634219646453857 -0.21588848531246185 -0.37877926230430603 -0.24057918787002563 -0.8404695987701416 0.6651836633682251 0.20996060967445374 0.5929727554321289 1.128912329673767 -0.6927138566970825 -2.4660677909851074 0.7921996116638184 -1.5063471794128418 -0.4533255994319916 -1.9211359024047852 3.6249406337738037 -0.40501827001571655 -2.677062749862671 1.4254720211029053 0.5588427186012268 1.8257359266281128 -0.6922045946121216 0.9058827757835388 -0.6782768964767456 0.17077043652534485 1.107808232307434 -1.9653183221817017 0.5989885926246643 -1.5270147323608398 1.3087584972381592 -0.607027530670166 -0.536768913269043 -0.3018854260444641 -2.1238224506378174 -0.835612952709198 0.23208865523338318 0.27120086550712585 1.2246917486190796 -1.2018390893936157 1.0383096933364868 -1.7866063117980957 0.35878899693489075 -0.43507012724876404 -0.0816178247332573 1.0166287422180176 2.4268810749053955 0.17496949434280396 0.03300321102142334 1.2266581058502197 0.3593377470970154 0.8387483358383179 0.6339755058288574 1.8167020082473755 -1.6780799627304077 -1.2703437805175781 1.7306586503982544 2.896005868911743 -0.0823785737156868 -0.2472962588071823 4.2772440910339355 -2.544734477996826 -1.5152664184570312 1.9440498352050781 1.0424598455429077 0.2102045863866806 0.7638686895370483 1.6115416288375854 0.3149872124195099 0.1927293837070465 1.2961007356643677 -1.939168095588684 0.7004590034484863 1.4081592559814453 -1.7464343309402466 -0.3176718056201935 1.134371042251587 0.9222283363342285 1.0495140552520752 1.5695226192474365 1.8479262590408325 -1.6402487754821777 -1.0385240316390991 0.5444745421409607 -0.10453926771879196 0.7337445020675659 0.784874439239502 0.7238124012947083 -1.2056084871292114 1.52052640914917 -0.13417494297027588 1.7449818849563599 1.054194450378418 -0.5307464003562927 0.011851079761981964 -0.7495337724685669 -0.4806022346019745 -0.3162747919559479 0.17377442121505737 7.918643951416016 -0.8844505548477173 -2.0593507289886475 -0.6094521284103394 2.3009822368621826 0.7940365672111511 0.3332652449607849 -1.4913322925567627 0.28191938996315 1.2819387912750244 -0.4259134531021118 -1.4688338041305542 0.3679932951927185 -0.9991264939308167 0.3338976204395294 0.1571483016014099 0.5649933218955994 0.2399156540632248 0.10447116196155548 0.5095576643943787 1.32761549949646 -0.18210412561893463 -0.6263625621795654 0.9280881285667419 0.3933591842651367 -0.5477620363235474 -0.023938195779919624 1.580592155456543 -0.6331072449684143 -0.5748359560966492 -0.8453439474105835 -1.0817320346832275 0.3132137358188629 0.3823314905166626 -0.028732644394040108 0.2404034584760666 0.21538934111595154 0.020614681765437126 1.4752320051193237 0.12803496420383453 -0.28647080063819885 -0.3330850303173065 -2.177175521850586 2.2758498191833496 -0.9850025773048401 -0.22899314761161804 -1.231321930885315 -0.4556417763233185 1.4430464506149292 1.9182590246200562 0.5786805152893066 -0.6927685141563416 0.6581295132637024 1.56935453414917 0.6665548086166382 -0.8994395732879639 -0.4128667712211609 -0.7977851629257202 0.5746488571166992 1.4990330934524536 0.668414294719696 0.006222587078809738 2.229614496231079 2.4872725009918213 0.5107417702674866 -0.373686820268631 3.497265338897705 -0.3235967755317688 0.4305106997489929 2.3196797370910645 1.528563141822815 0.584925651550293 -0.47072136402130127 1.8557056188583374 -0.13334088027477264 -0.6958913207054138 0.23014651238918304 0.32552069425582886 0.8824644088745117 1.057692527770996 2.63997220993042 0.666692852973938 0.7279337048530579 0.17319899797439575 -0.1247088834643364 -0.31929245591163635 2.5062363147735596 -5.844882488250732 1.7363579273223877 -1.3988878726959229 -0.4086882472038269 -1.3515658378601074 -0.6757014393806458 1.8401557207107544 1.9549081325531006 -1.3747525215148926 3.5060582160949707 1.6640832424163818 -0.9875921607017517 0.5749159455299377 -2.341987133026123 0.21191270649433136 -1.8337429761886597 2.3379735946655273 -0.36049461364746094 -0.8178658485412598 1.7514878511428833 -1.64717698097229 2.4265968799591064 -0.8174631595611572 1.9023890495300293 -0.9753375053405762 -2.426983594894409 0.44085007905960083 0.8751535415649414 1.735222339630127 -0.10721835494041443 -1.310972809791565 -0.4730772078037262 1.7317694425582886 -0.2079470157623291 -1.307015299797058 1.5274027585983276 -1.5268938541412354 0.28747037053108215 0.978560209274292 -0.9857254028320312 0.030460383743047714 0.30244994163513184 -0.5790249109268188 0.5092692971229553 0.8197705149650574 3.1488022804260254 1.4735584259033203 1.3135238885879517 -1.6279000043869019 -2.6177966594696045 -2.077660322189331 -2.850756883621216 -2.3178977966308594 1.5095962285995483 -0.014609781093895435 0.38116222620010376 -0.911892831325531 0.22090688347816467 -1.5052379369735718 -0.919063925743103 -1.1146273612976074 -0.6797159314155579 0.3898167014122009 1.241246223449707 -0.39540696144104004 -0.45597970485687256 0.27933356165885925 0.00035300967283546925 0.9060006141662598 1.0308046340942383 1.6581777334213257 0.6621842980384827 2.1237730979919434 0.5676183700561523 0.8965756297111511 -1.5945132970809937 0.10821864753961563 0.4741858243942261 0.22166956961154938 0.725865364074707 0.24691806733608246 0.18521815538406372 -1.8019142150878906 0.8778561353683472 1.295164942741394 0.1166926920413971 0.21505014598369598 0.1264844685792923 -6.039719581604004 -1.303310513496399 1.308044672012329 -1.6870121955871582 1.312656283378601 -2.2177202701568604 -0.15024378895759583 -2.0547003746032715 1.3013678789138794 -2.6359031200408936 -0.2556441128253937 -1.474378228187561 -2.11620831489563 2.2309062480926514 0.6729509234428406 1.7307584285736084 0.929153561592102 -0.764009952545166 0.8543575406074524 1.0216822624206543 0.46250656247138977 -2.8552141189575195 1.1478718519210815 2.398541212081909 -1.6098746061325073 0.5357805490493774 0.05887242406606674 -0.44756168127059937 0.026287121698260307 1.4141504764556885 -2.9949138164520264 -1.4639948606491089 0.6765178442001343 1.1249377727508545 -0.40512046217918396 -0.57373046875 0.6652054786682129 1.3616429567337036 -0.5289774537086487 -0.3415971100330353 -0.2466539442539215 -0.1845744103193283 -0.7477752566337585 -0.41756710410118103 1.4004536867141724 -3.6500096321105957 -1.112725853919983 2.0311269760131836 2.327932596206665 -3.3761942386627197 -0.6755082607269287 1.2468464374542236 0.6661637425422668 -0.42133691906929016 0.7576647996902466 2.113759994506836 1.3417410850524902 -1.3871334791183472 1.1964010000228882 -2.2268803119659424 -1.5632143020629883 -1.9946141242980957 -0.34958261251449585 -0.5592555403709412 1.255792260169983 -0.45919013023376465 -1.752049446105957 1.2069480419158936 -0.07331066578626633 -2.287433624267578 -0.0914313867688179 -0.9180302619934082 0.26211535930633545 0.366112619638443 0.5792359113693237 1.0842390060424805 2.0845441818237305 1.0751091241836548 -0.2782079577445984 -0.9767513871192932 0.5304192900657654 1.0114948749542236 0.3425087630748749 -0.5122716426849365 0.45215898752212524 -1.002166986465454 -0.57912677526474 -0.30222147703170776 -2.2353992462158203 -0.1397092342376709 -2.12967848777771 0.396659791469574 -0.12356135249137878 0.3577702045440674 -0.3844716548919678 0.11304686963558197 -0.5254583954811096 0.9704646468162537 0.5257560610771179 -2.4219367504119873 -2.2193727493286133 0.33297866582870483 1.3326702117919922 0.8605398535728455 1.6430763006210327 1.2888292074203491 -2.2844395637512207 -2.5644590854644775 1.304307460784912 0.6722416877746582 -0.5373178124427795 2.576788902282715 -0.19993558526039124 1.7740081548690796 -3.0120151042938232 0.6280258893966675 3.1095871925354004 0.945419430732727 0.5805713534355164 0.23823902010917664 -0.7981531023979187 -3.0775375366210938 1.1008623838424683 0.8509069681167603 -0.7440733313560486 -0.6498784422874451 -0.5210685133934021 0.6520838737487793 0.8356219530105591 -0.18865171074867249 0.2869694232940674 -0.14660724997520447 1.791333556175232 0.22090588510036469 1.1920442581176758 2.549255847930908 -1.1359113454818726 0.5807514190673828 4.12795352935791 3.2884926795959473 -0.27195388078689575 -1.6522603034973145 0.9462063908576965 -2.081467390060425 -0.9633937478065491 -0.7197549939155579 1.8482483625411987 -0.45687365531921387 -2.80086612701416 1.457119107246399 -2.7539992332458496 1.2955150604248047 -0.4254401624202728 -0.15589268505573273 -0.3907490074634552 -2.343979597091675 1.7445709705352783 1.2933427095413208 1.1913739442825317 0.830842912197113 0.42905092239379883 0.5276660323143005 0.41209495067596436 -1.5272330045700073 0.7024514079093933 0.9702696800231934 2.3956756591796875 0.683930516242981 1.0740439891815186 0.8324112296104431 -0.7409749031066895 -3.631666660308838 0.327495276927948 1.1529401540756226 1.5363248586654663 0.11776769161224365 -1.3847427368164062 -1.5801236629486084 3.925455093383789 -0.4978933036327362 -0.3482273817062378 2.629863739013672 -2.177294969558716 -2.477867841720581 0.68747478723526 0.19296050071716309 -0.8542612791061401 1.6307350397109985 -1.1167068481445312 5.9542107582092285 4.752725124359131 -0.4380483627319336 0.38951951265335083 -0.7226240634918213 1.7332907915115356 -3.4186501502990723 2.401886224746704 1.35991370677948 -0.0029836329631507397 -0.5838685631752014 0.33678051829338074 1.4581005573272705 -2.4936411380767822 -3.407168388366699 1.5581365823745728 -0.2627359628677368 -1.5236262083053589 2.2497894763946533 0.8634263277053833 0.7447215914726257 2.5869545936584473 0.23572684824466705 -0.8061447739601135 -0.7873495221138 0.7495908737182617 -1.4535316228866577 0.7044737339019775 2.0840537548065186 1.2746379375457764 0.007919619791209698 2.9148716926574707 1.1172164678573608 -2.966235637664795 -0.8595807552337646 -0.10291392356157303 -0.7118692994117737 -1.880688190460205 -4.287375450134277 -0.32225745916366577 1.3484134674072266 -0.05263591557741165 2.1567165851593018 2.6994755268096924 3.4597790241241455 -2.4123826026916504 0.2960347831249237 -1.0399283170700073 0.5972679257392883 1.8952678442001343 0.09518394619226456 1.3057470321655273 -1.096855878829956 1.8484716415405273 -1.1817034482955933 -1.025456428527832 3.7448770999908447 -0.42496371269226074 0.33818238973617554 -1.9134044647216797 1.2703568935394287 1.0598177909851074 0.5691642761230469 1.68638277053833 -0.653949499130249 -0.16613176465034485 0.12668666243553162 -0.3949038088321686 -1.4656389951705933 1.756291389465332 -0.6150195598602295 1.5104256868362427 0.20927366614341736 0.5791605114936829 -1.5744047164916992 1.6800786256790161 -1.331440806388855 4.534290790557861 -1.762338399887085 -0.6908015608787537 -0.5670481324195862 0.8865461349487305 -4.493122577667236 -1.313887119293213 1.701540470123291 2.0349724292755127 -0.5441759824752808 2.194547653198242 1.0321515798568726 -1.0983649492263794 -0.3956946134567261 -0.5303137302398682 0.18391364812850952 0.14354020357131958 0.3581119179725647 -0.8210545778274536 0.02060583420097828 0.03130466863512993 -0.7275961637496948 -0.13090844452381134 -0.014645825140178204 -0.2119232416152954 -0.35818129777908325 2.1781067848205566 -0.25353389978408813 1.197713851928711 -0.32598602771759033 0.22324830293655396 -1.2257764339447021 -1.1016489267349243 1.047053575515747 -1.2937637567520142 3.3558292388916016 -0.24281689524650574 -1.1404595375061035 0.6753131747245789 0.5850938558578491 -0.5379981398582458 0.6828994750976562 0.10317394137382507 -1.7651535272598267 -4.132463455200195 0.2692979574203491 -1.8322182893753052 -1.7219375371932983 1.893367886543274 1.608044981956482 1.0419678688049316 -2.6191399097442627 -0.12390221655368805 -2.659335136413574 -2.6911489963531494 2.6414430141448975 -0.05312415212392807 0.8486531376838684 -2.1772103309631348 0.42780598998069763 2.1514317989349365 1.8771322965621948 -3.2211179733276367 -2.990567684173584 -0.7588001489639282 -1.3298476934432983 1.075133204460144 -0.15715131163597107 -2.2641026973724365 -0.5783280730247498 0.24890382587909698 -1.378513216972351 1.4849549531936646 -0.764728307723999 -1.0008448362350464 0.9122388362884521 -1.8602882623672485 -0.7433682680130005 -1.5835394859313965 -0.12505066394805908 0.8007017970085144 -0.04738355427980423 2.71860671043396 1.2013964653015137 0.5215578079223633 0.0641510933637619 3.8729913234710693 -0.5458824634552002 -4.933868408203125 -1.5534299612045288 -1.6617146730422974 -1.618257999420166 -0.31441599130630493 0.010269229300320148 0.10248412936925888 2.736041784286499 3.752640962600708 -1.8531672954559326 -0.4939165711402893 -0.5786035656929016 -0.8858898878097534 0.8577879667282104 -0.6956957578659058 -0.3538541793823242 -1.7691904306411743 -0.11372043192386627 1.2083171606063843 1.0923817157745361 -0.5981810092926025 -0.1678512692451477 0.5837969779968262 -0.6598339676856995 -0.3404262959957123 -0.6442299485206604 1.902757167816162 -0.9057691097259521 -0.03338899090886116 0.27344292402267456 -0.5456480979919434 0.15661634504795074 -0.11698975414037704 0.3631702661514282 0.02054058387875557 -0.9086998701095581 0.47933024168014526 -3.6816062927246094 -1.1098194122314453 -0.139990895986557 0.5258599519729614 1.576609492301941 -0.5589085817337036 -0.6577361822128296 0.15504242479801178 -0.5859551429748535 3.7748115062713623 2.3534109592437744 1.4190356731414795 3.255425214767456 0.07449504733085632 -0.8567057847976685 1.3064818382263184 2.4180848598480225 -1.32114839553833 2.083230495452881 4.513032913208008 1.39627206325531 1.0241575241088867 0.11791275441646576 -2.928942918777466 1.302842617034912 0.01953624002635479 -0.8508658409118652 1.2515084743499756 -1.8185490369796753 -0.09386258572340012 0.9763935804367065 0.1513684093952179 0.841586172580719 0.4317394495010376 0.5275542140007019 -2.9320693016052246 2.2852237224578857 0.5334674119949341 1.7372933626174927 0.9477788209915161 -1.0318485498428345 -1.1490329504013062 -0.27847856283187866 -0.3443893790245056 -1.4939643144607544 -0.18979895114898682 0.5449893474578857 -0.23647046089172363 0.6520421504974365 1.6618444919586182 0.13237398862838745 0.6294896006584167 0.512298583984375 0.4865790903568268 4.606099605560303 5.332799911499023 4.482614517211914 0.0009403849253430963 4.0036301612854 -1.1451318264007568 -0.35149985551834106 1.8892638683319092 2.948423147201538 -0.8944389224052429 0.11724044382572174 0.4369542896747589 -1.2857983112335205 0.3955540657043457 -1.30246901512146 -3.0071942806243896 -0.21610763669013977 -0.9308009147644043 0.7360817790031433 -0.5139194130897522 -0.9006918668746948 -1.0670063495635986 2.0024499893188477 -2.525604486465454 -0.5161853432655334 -2.659616708755493 -0.31061238050460815 -0.6126807332038879 -1.6837691068649292 3.9495689868927 -0.8605859279632568 -0.8859845399856567 2.0748305320739746 1.435051679611206 -0.010601598769426346 0.6097457408905029 -0.7256969809532166 1.9726561307907104 -0.16189013421535492 -1.3970938920974731 3.5341594219207764 2.0572869777679443 -0.7823593616485596 -0.5469140410423279 1.334437608718872 2.903505325317383 -0.07776312530040741 -3.956899404525757 -0.309863418340683 -3.1916816234588623 1.400349736213684 0.839971125125885 3.733384132385254 4.733475208282471 2.3282313346862793 2.494317054748535 -2.0356192588806152 -0.5019960999488831 1.041701316833496 -2.127866744995117 -1.0128856897354126 1.73136305809021 -0.3444577157497406 0.4417573809623718 1.0942332744598389 -1.2978953123092651 0.34180203080177307 -2.2459616661071777 0.12989018857479095 0.6425139904022217 0.8479810953140259 -0.23212206363677979 -0.9780705571174622 1.3614578247070312 -0.02773594856262207 -1.3808480501174927 0.8224104046821594 0.7896531820297241 -2.0823779106140137 -0.15431055426597595 1.6789435148239136 3.0275673866271973 -1.2037065029144287 -0.9509010314941406 -1.3647359609603882 -2.3392133712768555 -0.5399934649467468 1.9625962972640991 1.1363074779510498 1.5789575576782227 1.6943199634552002 -0.18997666239738464 -0.6630423069000244 -1.1524794101715088 1.6418383121490479 2.298673629760742 0.413497656583786 4.677249908447266 0.1324809491634369 -2.490340232849121 0.5067198276519775 0.163774311542511 1.5335041284561157 -0.12224093079566956 0.6531482338905334 1.6728917360305786 0.4365764260292053 1.3796168565750122 -0.0770825743675232 -0.005070142447948456 -0.0015410883352160454 2.8219947814941406 -0.5080907940864563 0.3094659447669983 2.174649238586426 1.2463775873184204 -1.8727282285690308 0.7388073801994324 0.06023062765598297 -0.436779260635376 0.08805155009031296 1.5921812057495117 0.3289579749107361 -1.7773126363754272 0.024354085326194763 1.3559818267822266 0.35372263193130493 -4.93455696105957 -1.4174220561981201 2.376322031021118 0.4953504204750061 0.9045108556747437 -0.4634777903556824 -0.8340466022491455 0.06793880462646484 0.4143443703651428 -2.4043757915496826 1.2326250076293945 0.7223013043403625 -0.6022122502326965 0.2546258866786957 -0.6621202826499939 0.5267717242240906 0.018278883770108223 -1.6369397640228271 1.5621516704559326 -0.31917881965637207 -3.6601479053497314 1.1208385229110718 0.5782521963119507 0.45794638991355896 -0.615023672580719 3.4225847721099854 2.375537633895874 1.6734436750411987 1.1372648477554321 -0.38422760367393494 -0.38354048132896423 -1.7752107381820679 0.8000884652137756 1.0356013774871826 0.6992436051368713 0.383359432220459 -0.21461434662342072 -0.34583747386932373 -1.3509342670440674 -0.7100886106491089 -0.5363940596580505 0.6696686744689941 0.4297690689563751 -0.5924065709114075 -3.324868679046631 -2.7147486209869385 1.1340481042861938 -0.9734850525856018 -0.6131789088249207 -1.172321081161499 -2.7393248081207275 3.7831921577453613 -0.536054253578186 0.8384037613868713 -0.597884476184845 1.8504618406295776 0.11316947638988495 -0.9043661952018738 -1.2844460010528564 -0.4572778046131134 2.1926825046539307 -0.5675984621047974 -1.328298807144165 -0.8619394898414612 1.6168431043624878 0.3116128742694855 0.17321385443210602 0.8494647145271301 1.6257407665252686 0.2250395566225052 2.9257004261016846 1.0106890201568604 1.562476634979248 0.459982305765152 0.2152608036994934 1.0325543880462646 -0.7290842533111572 -0.1580953150987625 -0.5379920601844788 0.2910059690475464 0.6374744772911072 -2.355315923690796 0.14697445929050446 2.289299249649048 -0.5009666681289673 1.054129958152771 -0.24810436367988586 -0.11572333425283432 -0.7852373123168945 -1.2438633441925049 -0.9809331893920898 -2.500192165374756 0.048191703855991364 1.8740593194961548 -3.043978452682495 2.473626136779785 0.16800335049629211 -0.6557206511497498 0.39841243624687195 1.5637463331222534 1.2929208278656006 3.198228359222412 1.2720928192138672 -0.1900491714477539 -1.0941307544708252 2.39017391204834 3.6505868434906006 -3.051729440689087 -0.1558810919523239 -0.350515216588974 -0.12376929074525833 -0.3526914119720459 0.5311960577964783 3.2406821250915527 1.57524573802948 -2.4140708446502686 -1.277300238609314 1.0597946643829346 -0.27192530035972595 -2.148852825164795 -0.18391305208206177 -2.1904914379119873 0.025037357583642006 0.0006375613156706095 -0.7336304187774658 -0.36911454796791077 0.2176779955625534 -0.6157254576683044 -0.30651915073394775 0.8253501653671265 0.5051015615463257 -0.2777094542980194 -0.4078220725059509 -0.0614207461476326 2.868614912033081 -1.4671871662139893 -0.09966062754392624 0.6665613055229187 3.130077362060547 1.9084984064102173 0.027822665870189667 1.1252604722976685 -0.07527894526720047 1.388256549835205 1.3975287675857544 0.5070942044258118 2.030984878540039 -1.6215324401855469 -0.32713717222213745 1.0761466026306152 0.4721181392669678 -1.2080466747283936 2.0947425365448 -3.7792725563049316 -0.8450660109519958 -0.30041471123695374 -1.2213032245635986 -0.44402259588241577 0.02468707598745823 -1.3325083255767822 -2.0727145671844482 -0.9598311185836792 -0.5240461826324463 -0.3577565848827362 -0.604729413986206 -2.401174545288086 -0.5387209057807922 -0.18797656893730164 -0.4502111077308655 -0.7183099389076233 -0.1766951084136963 -0.7670877575874329 2.3868980407714844 -0.4266566336154938 -2.6567206382751465 -0.14782382547855377 0.5548942685127258 -0.5561157464981079 -1.4329522848129272 0.6785773634910583 1.2427942752838135 0.2051093876361847 3.873506546020508 1.8456941843032837 -0.5030601620674133 -2.7799956798553467 0.26600411534309387 -0.2988032102584839 0.8538731336593628 -0.7710018754005432 -2.8668973445892334 0.875464677810669 -0.4398900866508484 2.052447557449341 -0.7881318926811218 0.8033550381660461 -4.563819408416748 -1.1287615299224854 0.3462696373462677 1.5651661157608032 0.9329098463058472 0.14738011360168457 0.18056270480155945 -2.040803909301758 -1.7353743314743042 0.4565180242061615 0.03093741647899151 0.5903614163398743 -1.9965909719467163 -1.1590675115585327 -1.1293123960494995 0.29759547114372253 -0.8399724364280701 3.9081296920776367 -0.6019874811172485 -1.1251311302185059 0.03389400616288185 0.17781829833984375 0.7019129991531372 -0.233962744474411 1.828553318977356 1.0685420036315918 -3.337644577026367 -3.2564778327941895 -2.2256877422332764 -2.1205971240997314 -1.3429359197616577 -0.3705887496471405 -0.05130360275506973 0.12243850529193878 -0.3911624848842621 -0.45073962211608887 -2.8550617694854736 1.236534833908081 1.1224772930145264 0.10215960443019867 -0.9397817254066467 0.7231588363647461 0.6708101034164429 1.2725200653076172 3.768277168273926 1.8644495010375977 -0.3277127742767334 1.3656461238861084 0.27711617946624756 0.2697661817073822 0.6459850668907166 1.6059539318084717 1.256683111190796 -0.9242135286331177 -1.1632039546966553 1.5565385818481445 -2.636162519454956 0.7146324515342712 1.3472357988357544 1.8297533988952637 0.8551435470581055 -1.294354796409607 1.6313685178756714 -0.628219485282898 -0.6165786981582642 -1.0825034379959106 -0.24000586569309235 0.8495047688484192 -0.9893627762794495 0.14825083315372467 2.8567657470703125 -1.270674467086792 -3.764813184738159 0.9085851907730103 0.021502535790205002 -0.12684033811092377 0.1409156620502472 -0.5447521209716797 -4.57799768447876 3.8409359455108643 -0.6670874357223511 -0.30331623554229736 0.42261865735054016 0.4400983154773712 -0.08766885846853256 -2.602769374847412 -2.3082470893859863 -0.812627911567688 1.1591755151748657 -2.670013904571533 0.6915838122367859 0.013316547498106956 -0.9822455644607544 0.7634478807449341 -0.6212558746337891 0.9931252002716064 -2.034571886062622 1.0231307744979858 1.3062440156936646 -1.5588911771774292 -0.14544162154197693 1.2623451948165894 -2.2371902465820312 0.2996473014354706 0.7009407877922058 0.531261146068573 0.9881840944290161 0.4941137135028839 0.17719586193561554 -0.25149762630462646 -0.5712416768074036 -1.0457137823104858 -0.195623517036438 2.6284687519073486 2.2869133949279785 0.45393455028533936 3.6349799633026123 -0.777199387550354 -1.1863312721252441 4.099218845367432 -0.013936206698417664 -1.0813813209533691 -3.946418523788452 2.113980531692505 -0.2722816467285156 -1.1794906854629517 0.3571501076221466 -0.9570370316505432 -2.0247862339019775 -0.8660736083984375 2.6857686042785645 1.4750146865844727 3.98740291595459 1.2926719188690186 -1.6314653158187866 -0.5645996928215027 0.9661869406700134 -0.9338288307189941 0.8659971952438354 -0.4160139560699463 1.084537386894226 -1.3928154706954956 1.3349390029907227 -1.2410087585449219 -0.6868525147438049 -0.8460087776184082 2.7473948001861572 0.2301829308271408 0.28390589356422424 -2.3147854804992676 1.843125581741333 -1.887070655822754 0.22547169029712677 3.652272939682007 1.4229540824890137 -0.8802967071533203 0.9808698296546936 -0.06289515644311905 1.3830713033676147 0.7562128305435181 1.7835091352462769 -4.606664180755615 -0.34541943669319153 -0.4225162863731384 -1.220212459564209 0.16865313053131104 -0.6754049062728882 -2.971510648727417 -0.07029499113559723 1.6494759321212769 -0.020497480407357216 0.3752819299697876 -2.5592846870422363 0.07756511121988297 -0.4584732949733734 1.6068979501724243 -2.482095718383789 -1.2417004108428955 0.8566617965698242 -0.3655225932598114 -0.9034740328788757 0.47166913747787476 0.17855599522590637 -1.0611588954925537 -1.1423852443695068 0.5757794976234436 0.20228888094425201 -0.5658025741577148 -0.01595425233244896 -0.20377148687839508 -0.2770938277244568 -1.4714816808700562 -0.6988097429275513 -1.2149728536605835 0.1387542486190796 -0.8960003852844238 -1.5343728065490723 -1.4953348636627197 -1.4637247323989868 0.8412420749664307 -0.8113836646080017 0.4795474708080292 4.602132797241211 -3.014493465423584 -2.1727304458618164 0.32146310806274414 2.694450616836548 0.4195767939090729 0.1654653251171112 -0.5047266483306885 2.0033297538757324 -0.6626681089401245 2.5865566730499268 0.9944953918457031 5.012183666229248 -0.14276865124702454 0.9628282785415649 2.7503750324249268 2.6650781631469727 -2.1351478099823 -0.23521947860717773 -2.1375951766967773 0.26944276690483093 0.3103564381599426 0.9519772529602051 -0.3891991972923279 0.3236702084541321 -0.7044230699539185 -0.7280167937278748 -0.20772676169872284 -0.47400233149528503 -0.8595200181007385 0.3898124396800995 -0.29169487953186035 -0.5937251448631287 1.8693196773529053 -0.9677292704582214 -1.4699459075927734 -0.9691874980926514 -2.867182970046997 -1.0045599937438965 -1.4278868436813354 -1.5994821786880493 0.0743464007973671 0.5421578288078308 -0.7406960129737854 -0.5536044239997864 7.305927753448486 0.15984848141670227 -1.0264426469802856 -0.6521053314208984 0.3406111001968384 -1.8006294965744019 -4.296302795410156 -2.9548914432525635 2.888408899307251 -0.8545827865600586 2.627817392349243 3.434056043624878 0.013246208429336548 -1.4501155614852905 0.6306795477867126 0.6370455026626587 -0.41129767894744873 1.4728208780288696 1.1758859157562256 -0.3702675700187683 0.5368388891220093 0.517063319683075 0.04256703332066536 -0.7216320037841797 1.7356300354003906 -0.058446191251277924 -0.7803016304969788 -0.29648637771606445 -2.3024814128875732 -0.9002111554145813 -0.2743653357028961 -0.8263526558876038 -0.06645680963993073 -1.5998780727386475 -0.042320385575294495 2.08808970451355 0.008645253255963326 -0.19321253895759583 0.33566951751708984 0.1030057966709137 0.06598567962646484 -0.47430935502052307 -0.9823876023292542 -1.0246362686157227 -1.780958890914917 -2.3187718391418457 -2.1132311820983887 3.020538091659546 2.3489675521850586 -1.209210991859436 0.8518104553222656 -0.7995545864105225 0.43692436814308167 3.3248331546783447 0.5215500593185425 -1.154876708984375 -0.4191693067550659 -0.002624955028295517 -0.8401434421539307 1.2192219495773315 3.849447011947632 0.5045326352119446 2.8698506355285645 0.11770427972078323 -1.4227845668792725 0.15439951419830322 -0.5297999978065491 0.4634624123573303 -1.7572834491729736 -0.43841904401779175 0.8874354362487793 -1.1509158611297607 -0.25999554991722107 0.005650349892675877 -0.5687697529792786 0.510535717010498 1.0946041345596313 0.30140233039855957 -0.4230048358440399 2.5053391456604004 0.6725948452949524 1.2912126779556274 1.893081784248352 3.21189022064209 1.4751014709472656 2.1098945140838623 -10.250300407409668 -1.2371768951416016 1.2883402109146118 -0.5898869037628174 0.6755508780479431 2.8511266708374023 -0.02228722535073757 -0.470686137676239 0.8722526431083679 -1.5260283946990967 -0.39419254660606384 0.3972110450267792 -0.04329865053296089 0.5006521344184875 0.28486135601997375 -0.2175399512052536 -0.15490369498729706 0.3431977331638336 -0.6498624682426453 -0.03743972256779671 -1.3495125770568848 -0.0028626522980630398 -0.6830878257751465 -0.29209160804748535 -0.6746242046356201 -0.0983206033706665 0.3873211145401001 1.1108723878860474 -0.49504727125167847 -1.1028944253921509 0.2236247956752777 -0.2387700080871582 -0.644126832485199 -0.7583531737327576 -0.16563349962234497 -0.08334697782993317 -0.16696098446846008 1.3199712038040161 0.17945596575737 0.06629762798547745 -0.14686653017997742 0.3076850473880768 -2.283538579940796 2.024038314819336 -0.19683292508125305 -0.6944602727890015 -3.5714926719665527 -0.8212003111839294 -0.1623222380876541 0.011675424873828888 4.189589023590088 -0.0577470064163208 -3.5089149475097656 0.013055496849119663 1.2549476623535156 0.25821802020072937 -0.9908597469329834 1.9139527082443237 -0.08165296167135239 -2.431985378265381 -2.2169504165649414 1.735703468322754 -0.8415070176124573 1.2544151544570923 -2.3448891639709473 -0.521198570728302 -1.3495205640792847 -0.3868699073791504 1.1856201887130737 1.2087936401367188 1.4346837997436523 2.9628636837005615 -0.003330744570121169 -0.34735196828842163 -0.41187241673469543 -0.5152302384376526 -0.4346933960914612 0.26544588804244995 0.5683261156082153 1.7256430387496948 1.8160603046417236 1.760080337524414 0.7396141290664673 -0.11624519526958466 -0.6995476484298706 -0.17432786524295807 2.0934295654296875 0.6850652098655701 1.6116747856140137 -1.33845853805542 -3.5132548809051514 1.1772325038909912 -0.2339520901441574 -1.9710546731948853 1.075994610786438 -0.948613166809082 0.5174666047096252 0.7753621339797974 1.3032541275024414 1.9559019804000854 -2.0462327003479004 0.9143588542938232 -4.921494960784912 0.31526291370391846 1.0895743370056152 1.4963123798370361 -2.9068057537078857 0.22182589769363403 -0.9662377238273621 0.9675344824790955 -0.9125571846961975 1.195102334022522 -0.4165800213813782 -2.5460407733917236 1.0667579174041748 -0.5348605513572693 -0.2409558743238449 0.03286062180995941 -1.0956264734268188 -0.7626761198043823 -1.3963795900344849 0.4740813076496124 -0.527452826499939 -0.09587259590625763 -0.8650935292243958 -0.18413403630256653 -0.7744224667549133 -1.3181809186935425 2.0042884349823 2.5104477405548096 -1.3072236776351929 0.06466268748044968 -0.553816020488739 2.758180856704712 -2.4615392684936523 2.2986152172088623 -0.45339903235435486 -1.2749890089035034 4.1548943519592285 -0.621484637260437 -0.5351250767707825 2.6787984371185303 2.075856924057007 -0.23443417251110077 0.04300118237733841 -1.0389214754104614 -0.32633158564567566 0.026508744806051254 0.6097437143325806 -1.2526565790176392 0.8339440226554871 1.1479302644729614 2.5864174365997314 -0.8251944184303284 0.646787166595459 0.39411506056785583 -1.1833325624465942 0.7498781085014343 -1.184600591659546 0.6339282393455505 -0.011096262373030186 -0.3969306945800781 -0.352268248796463 -0.9402989745140076 0.3853522837162018 -1.1271353960037231 2.2627346515655518 -0.376656711101532 1.0294132232666016 1.9990414381027222 -1.0606976747512817 2.6343400478363037 -2.0479633808135986 0.8548163175582886 0.8596301674842834 -1.1334024667739868 -0.19865962862968445 2.2618274688720703 -1.4356640577316284 -0.8964377045631409 -0.46947744488716125 -0.9669991135597229 -1.23147451877594 1.1052043437957764 -0.7927757501602173 0.5442293882369995 -1.7591824531555176 -1.9658995866775513 -4.655454158782959 -0.8321713209152222 1.7029693126678467 0.9507184624671936 -0.18090705573558807 -1.841189980506897 -4.50396728515625 -1.450333833694458 -0.8717578649520874 1.9475017786026 -0.2830875515937805 2.1631014347076416 -0.9814770817756653 0.41932663321495056 0.6096837520599365 0.9171384572982788 0.4592394232749939 -0.43739113211631775 0.5486100316047668 -1.592065691947937 -0.03332079201936722 -0.4636968970298767 0.11281886696815491 0.15764294564723969 1.3624714612960815 1.5135713815689087 0.18848930299282074 1.1350163221359253 0.27746686339378357 -0.2149004191160202 -1.7431901693344116 -0.8588356971740723 -0.7603880167007446 -6.390851020812988 -0.6950855851173401 2.8112711906433105 -0.8505570292472839 -0.9862996935844421 0.5973345637321472 -0.9892544150352478 0.48761898279190063 -1.7463585138320923 -0.36990514397621155 1.4531071186065674 -2.3560733795166016 -1.6621276140213013 0.9751181602478027 1.05462646484375 -2.457094430923462 -2.084578037261963 2.8400254249572754 -1.6134988069534302 0.8120028376579285 0.4375093877315521 -0.08826285600662231 0.6201043725013733 -0.7068185210227966 4.772233486175537 0.8652532696723938 0.057796817272901535 0.7445347309112549 0.17368818819522858 -1.4535623788833618 -0.6510135531425476 1.4830853939056396 0.39982813596725464 0.6090291142463684 0.9234451055526733 0.6982668042182922 -0.4983079135417938 -0.7006939649581909 -0.2348741739988327 0.8182386755943298 1.1072883605957031 -0.2021908164024353 3.3568499088287354 -0.4438200294971466 1.1720913648605347 -1.437346339225769 -2.062591552734375 -0.9914719462394714 2.0858681201934814 0.9517202973365784 -0.6797333359718323 1.5840461254119873 -0.39762815833091736 1.246335744857788 1.2964189052581787 0.037517279386520386 2.482866048812866 -1.4513697624206543 -0.6393640041351318 1.7967514991760254 1.746285319328308 1.3298147916793823 -0.8998206257820129 -3.5526866912841797 -1.048249363899231 -1.5608378648757935 -1.3871464729309082 1.7737244367599487 -2.026970148086548 0.3717906177043915 2.9240071773529053 -0.7159087657928467 -1.548490285873413 1.9477226734161377 -0.9800520539283752 3.1762425899505615 0.7469823360443115 3.210127830505371 0.3592917025089264 0.4100880026817322 0.8786177635192871 -0.8555670976638794 1.5202524662017822 2.1366658210754395 1.8000363111495972 0.808682918548584 -0.016110345721244812 1.0236746072769165 -0.8581522703170776 -2.969313621520996 -1.2876603603363037 1.6949853897094727 4.593227863311768 -1.2038997411727905 0.039422255009412766 0.3015684187412262 0.5776746273040771 -1.777363657951355 -0.9000799655914307 -1.2703197002410889 4.641417503356934 -0.14101824164390564 0.3048293888568878 -0.2089238464832306 -1.4671801328659058 -0.46293938159942627 -0.7897636294364929 -1.1422749757766724 0.5975739359855652 0.413377583026886 0.8483703136444092 1.5898948907852173 2.8443500995635986 1.658545970916748 -0.5688735842704773 0.838744580745697 0.04657810181379318 -0.7582457065582275 1.7758311033248901 0.08842366188764572 -0.5893706679344177 -2.7129054069519043 -1.9721946716308594 3.486633062362671 -0.6390674114227295 -1.6654988527297974 -0.24484269320964813 2.007880449295044 2.9004604816436768 -0.9618926048278809 0.3388421833515167 -0.6217376589775085 -4.648315906524658 -3.8787343502044678 2.116732120513916 -0.8709878921508789 4.475447654724121 -1.83155357837677 -1.2409409284591675 -2.646437168121338 -1.7508808374404907 -0.22325332462787628 3.9372897148132324 0.5534895658493042 -0.5343183279037476 -0.7099850177764893 1.6860606670379639 -1.042211651802063 -0.1308615803718567 0.5732161402702332 1.3699020147323608 -0.25683683156967163 -0.1906493604183197 -0.5093523263931274 1.7286388874053955 0.16567501425743103 -0.29788944125175476 1.2010776996612549 -0.5459450483322144 -1.0995798110961914 0.6717180013656616 0.49123260378837585 -0.054353952407836914 0.7445322275161743 0.2007138878107071 -0.4461568295955658 -0.375544011592865 5.589409351348877 0.18901018798351288 0.9364945888519287 0.24755413830280304 0.1224200427532196 0.7110893130302429 -0.23854072391986847 -4.207266330718994 -2.816258192062378 -0.1752341389656067 1.9927799701690674 -0.5573931336402893 3.3694658279418945 4.862736225128174 1.1719104051589966 0.12246863543987274 -0.9919970631599426 -0.40602126717567444 -0.44184038043022156 -3.9833247661590576 -2.063034772872925 -0.751578152179718 -1.5123851299285889 -2.4400527477264404 -1.4807847738265991 2.4772303104400635 -2.5295162200927734 2.321685314178467 0.6385283470153809 -1.0959126949310303 -1.0285756587982178 -0.2224632054567337 -0.8842200040817261 -1.786449670791626 2.113823890686035 1.9717961549758911 -0.7898419499397278 0.7182451486587524 -1.3274470567703247 0.6120396256446838 0.4303436577320099 2.640989303588867 1.968247652053833 -1.6275721788406372 -0.48522424697875977 -2.1205525398254395 0.2860460877418518 0.23596540093421936 0.5452544689178467 0.5809909701347351 -1.0346912145614624 2.124061107635498
--- fc1.bias ---
-2.195695638656616 -1.9272222518920898 0.2430989295244217 0.03576509654521942 -0.36418798565864563 -0.7499978542327881 -3.071566343307495 -1.8098465204238892 -0.9579272866249084 0.47022590041160583 -1.078831434249878 -2.1702840328216553 -0.21130327880382538 -2.620723247528076 0.9065282344818115 0.09900303184986115 -0.8845542073249817 -0.10413959622383118 0.023578839376568794 -2.955932855606079 -0.8384294509887695 -0.12924768030643463 0.3082776665687561 -2.1857073307037354 0.8642129898071289 -1.0511810779571533 -2.568521499633789 -0.7761520147323608 0.3862007260322571 -2.884227991104126 -1.4579534530639648 -2.522146701812744 -0.8460909724235535 -0.18159417808055878 -0.2971745431423187 1.5675944089889526 -0.5827386975288391 0.07062039524316788 -2.4365971088409424 -1.1263186931610107 -0.6174967288970947 -1.1950732469558716 0.7510182857513428 -2.7363998889923096 0.3777559995651245 0.04496505856513977 -0.19154147803783417 -2.668755054473877 -1.1698318719863892 -1.1562129259109497 -2.620802402496338 -2.3096764087677 1.4820919036865234 -0.7074999809265137 -0.47817638516426086 -1.5841354131698608 0.307197242975235 0.28477054834365845 0.9188562035560608 -1.0689646005630493 -0.5262948274612427 -1.0545217990875244 -1.5291272401809692 -1.13993239402771
--- fc2.weight ---
-0.1430804431438446 -0.10873036831617355 -0.07680536061525345 -0.03445722162723541 -0.10896675288677216 0.09598700702190399 -0.3871757984161377 -0.1349642276763916 -0.3050938546657562 -0.36924123764038086 -0.12294231355190277 -0.023024318739771843 -0.3476385772228241 -0.44294047355651855 -0.23996001482009888 -0.0395144522190094 -0.1528533697128296 0.01442361157387495 0.01715748943388462 -0.0046736449003219604 0.04980522021651268 -0.5519473552703857 -0.00538664311170578 -0.1309158354997635 -0.2129666954278946 -0.04655700549483299 -0.07634571939706802 -0.27679190039634705 -0.46343183517456055 -0.046949103474617004 -0.515866219997406 -0.06271232664585114 -0.15178737044334412 -0.09570375829935074 -0.18678362667560577 -0.18569502234458923 -0.13793769478797913 -0.41966626048088074 -0.06579375267028809 -0.1354862004518509 0.031684182584285736 -0.4131002128124237 -0.2838868498802185 -0.3904004693031311 -0.0807645320892334 -0.3173500895500183 -0.39719587564468384 -0.1448996663093567 -0.13751670718193054 -0.1321609914302826 -0.3489409387111664 -0.26930418610572815 -0.011753601022064686 -0.019055187702178955 -0.12043161690235138 -0.19976896047592163 -0.044431813061237335 0.03505178913474083 -0.2687811553478241 -0.16958768665790558 0.16607701778411865 -0.09292978793382645 -0.169029101729393 -0.3550513684749603 1.1513956785202026 -0.08332065492868423 0.37413302063941956 0.4382537007331848 0.691483736038208 0.40965837240219116 -0.38221344351768494 1.38423752784729 0.14292246103286743 0.7858452200889587 -0.35383808612823486 0.7069823741912842 0.2560088634490967 0.13672170042991638 0.5384696125984192 -0.8273187279701233 -1.101521372795105 1.4095332622528076 -1.0830795764923096 1.0838731527328491 -1.018518090248108 0.5369316339492798 -0.8365248441696167 -0.8879222869873047 0.5594340562820435 -0.28564324975013733 0.7978185415267944 0.3117746412754059 0.1758432388305664 -0.009171692654490471 0.5618093609809875 -0.051424507051706314 -0.2811812460422516 -0.1701662391424179 1.1891841888427734 -1.1126545667648315 -0.5438584089279175 -1.3664066791534424 -0.5518093109130859 -0.867150604724884 -0.055330678820610046 0.932551383972168 0.3054381012916565 0.944526731967926 -1.2815536260604858 0.11630241572856903 0.7829074263572693 0.4639854431152344 -0.9570355415344238 -0.13945411145687103 -0.34212929010391235 0.5242664217948914 -0.001208541914820671 0.9340153336524963 -0.8502398729324341 -0.06742262840270996 -0.06933875381946564 0.46733522415161133 0.9987754821777344 0.29069051146507263 1.3888112306594849 0.44951945543289185 1.2616626024246216 0.42769843339920044 -2.4589924812316895 -0.541138231754303 -0.25955334305763245 0.18465940654277802 -3.6098859310150146 -0.40697789192199707 0.354432612657547 1.6349310874938965 -1.5110770463943481 0.3963810205459595 1.182451844215393 0.3755772113800049 2.5134646892547607 -0.7490927577018738 -0.8392921686172485 -2.5703818798065186 -1.6684720516204834 -0.12412787228822708 0.2150730937719345 1.2250356674194336 -2.0918967723846436 0.22810712456703186 -0.4133930802345276 -1.4529277086257935 -0.9872150421142578 0.44964078068733215 -2.3525166511535645 -0.13497023284435272 -4.015432357788086 -2.9882922172546387 -2.541353702545166 -0.36203718185424805 1.0518182516098022 -0.16031421720981598 -0.44392573833465576 -0.2151823490858078 1.4846174716949463 1.0784027576446533 -0.8602871894836426 0.3188893795013428 0.6855166554450989 -1.8752998113632202 0.9212362766265869 -1.1714327335357666 -0.5769146680831909 -0.7221156358718872 -0.9227907657623291 0.39954790472984314 -2.505363941192627 -0.9797757267951965 -1.3057993650436401 -3.879267930984497 -3.798062801361084 -0.7761090397834778 -0.929892897605896 0.048426877707242966 0.2783174514770508 -1.9078923463821411 -1.1055811643600464 -1.7556872367858887 -0.5293644070625305 0.10557790100574493 -2.455418825149536 -0.8106980323791504 -3.882596731185913 -5.1624321937561035 -1.9138834476470947 1.1680084466934204 -1.7419313192367554 -0.7982025742530823 0.03648016229271889 -4.0962677001953125 -0.9624009728431702 -0.09698981046676636 -0.7933100461959839 0.16807913780212402 -0.33331990242004395 0.9455523490905762 -1.1785526275634766 1.15568208694458 0.36306232213974 -0.7906371355056763 -1.2842704057693481 0.25423532724380493 -2.5323877334594727 1.893741250038147 -0.2313610315322876 -2.346226930618286 -0.35364946722984314 -2.254049777984619 1.8232519626617432 -2.3325159549713135 0.8659791946411133 0.6390174627304077 0.0034938997123390436 -0.405163437128067 -0.08712300658226013 1.3644191026687622 -1.6284139156341553 1.096667766571045 1.9257094860076904 -1.5208176374435425 -0.6391660571098328 -1.0997753143310547 -3.038628101348877 -1.0166606903076172 -3.3082687854766846 -2.287625551223755 0.07638441026210785 -0.34591683745384216 0.0535709448158741 0.2913359999656677 -2.891026258468628 -0.6290649175643921 -2.865191698074341 -2.5525076389312744 0.02696908265352249 0.6054524183273315 -0.782233476638794 0.58197420835495 -0.3801991641521454 1.0582619905471802 -1.0040826797485352 1.2193940877914429 1.2998570203781128 -2.9284842014312744 -0.371920645236969 -3.559572696685791 1.3735356330871582 1.3672149181365967 1.2493245601654053 -1.5181009769439697 -1.6034640073776245 0.8953685760498047 -0.10447333753108978 1.0635207891464233 -1.3808456659317017 2.92649245262146 -0.044885870069265366 -0.6412103176116943 0.40388232469558716 -0.3740622103214264 0.02806405909359455 -0.900530993938446 0.6543586850166321 -1.0097386837005615 1.0836844444274902 -1.1912882328033447 -3.8174564838409424 -0.17777572572231293 -0.3200623095035553 -1.2064629793167114 1.824283480644226 -3.4253921508789062 0.4919389486312866 0.19788247346878052 -5.280966281890869 0.06896889954805374 0.15385301411151886 -1.491349220275879 1.0697002410888672 -0.5363237261772156 -3.292792797088623 0.3132224678993225 -0.5937142372131348 -1.880566954612732 0.6604834794998169 1.107074499130249 -0.45548129081726074 -0.7625547647476196 -0.8132860660552979 0.7913540005683899 0.8403308987617493 -2.382749319076538 -1.0761892795562744 -0.08311504870653152 -0.281480997800827 -2.9490413665771484 -0.28210288286209106 -0.219297856092453 0.8532559871673584 0.341776967048645 -2.1841697692871094 1.812188744544983 -1.4867477416992188 0.5638267993927002 -1.2933543920516968 -0.4323805272579193 -0.31785261631011963 -2.4032998085021973 -0.28907889127731323 0.44811922311782837 -0.09750189632177353 -0.1775713562965393 -0.016630077734589577 -0.14393822848796844 -0.16739265620708466 -0.021042004227638245 -0.022000806406140327 -0.20488286018371582 -0.018715081736445427 -0.16676224768161774 -0.0726378858089447 -0.15246978402137756 -0.2669661045074463 -0.2786930501461029 -0.0919809490442276 -0.11982538551092148 -0.09386289119720459 -0.044569458812475204 -0.053002189844846725 -0.02274557575583458 -0.04442674294114113 -0.048765555024147034 0.013486802577972412 -0.1893678605556488 -0.047662630677223206 -0.06821860373020172 -0.08567829430103302 -0.17145349085330963 -0.03427920117974281 0.015633391216397285 -0.3800026774406433 -0.08001507073640823 -0.13003656268119812 -0.026493538171052933 -0.027616353705525398 -0.21146990358829498 -0.20523661375045776 0.04114258661866188 -0.14576435089111328 -0.015909168869256973 0.09990905225276947 -0.18868210911750793 -0.14760980010032654 -0.16917529702186584 -0.005830579902976751 -0.034716859459877014 -0.14175790548324585 -0.05400168523192406 -0.22389790415763855 -0.09454624354839325 -0.11787096410989761 -0.05461371690034866 -0.023140640929341316 -0.0051551926881074905 -0.02016814425587654 -0.09281769394874573 -0.029345959424972534 -0.016673525795340538 0.029323143884539604 -0.08707622438669205 -0.20521724224090576 -0.12502068281173706 -0.0048502660356462 -0.0762544721364975 -0.6719327569007874 0.19651426374912262 -0.30670973658561707 -0.6715604662895203 -2.417590618133545 -0.36072731018066406 0.529327392578125 1.2049661874771118 0.21663959324359894 0.7632150650024414 -0.3912632465362549 -0.3044964075088501 0.3036740720272064 -0.8077647089958191 0.656516432762146 -4.7949137687683105 -1.8777776956558228 1.8994553089141846 -1.8620303869247437 -3.066901683807373 -2.966830253601074 0.7931215167045593 0.10571181774139404 0.5616124868392944 0.014904769137501717 -0.6002820730209351 -0.3232532739639282 -3.948789358139038 -0.4049004316329956 -0.4920559525489807 -3.4319169521331787 -3.0260188579559326 -1.9488483667373657 -2.176861524581909 -0.5437049269676208 0.9563520550727844 -5.182052135467529 2.2751049995422363 -3.3704113960266113 -2.3548879623413086 0.21686182916164398 0.3743355870246887 0.9629207849502563 0.0024993708357214928 0.9668359756469727 -0.18843317031860352 -0.0689714252948761 -0.4233405888080597 -2.0389699935913086 -5.294461250305176 -0.35165634751319885 -3.394676923751831 0.6826643347740173 -1.5196064710617065 -0.6186193823814392 -0.7000831365585327 0.7230960726737976 0.3645530045032501 -0.54305499792099 1.46413254737854 -3.6610639095306396 -4.010768413543701 -2.7770824432373047 -1.2347241640090942 0.2587706446647644 -2.21457576751709 0.9152075052261353 0.3225032091140747 0.9027591347694397 0.28392910957336426 -0.3800671696662903 -2.6656782627105713 -0.30878308415412903 0.6451892256736755 -4.730047702789307 -1.3677388429641724 0.910912036895752 -1.033207654953003 -0.16945116221904755 -1.5906778573989868 0.17179426550865173 1.2237043380737305 -1.1957142353057861 -0.6994223594665527 -0.3629501760005951 -0.1203715056180954 0.6557084918022156 -0.42363330721855164 0.4145149886608124 -1.0873048305511475 1.0373679399490356 -2.6354377269744873 0.9875467419624329 -4.064292907714844 -2.5047175884246826 -2.45682954788208 0.8235459327697754 -0.0919516310095787 -0.3320957124233246 -1.8038121461868286 -2.4609100818634033 -0.6164493560791016 0.025618629530072212 -0.5558338761329651 1.3857792615890503 -0.3419865071773529 -0.24236811697483063 0.606024444103241 0.15181799232959747 -0.08946873992681503 -3.6817641258239746 -2.7038705348968506 -1.8352766036987305 1.0882847309112549 -2.4132652282714844 -1.404200792312622 1.1929442882537842 0.7796681523323059 -1.2314910888671875 1.5509393215179443 -0.569089412689209 0.7248873114585876 -1.4472600221633911 -0.23121236264705658 2.0546371936798096 0.484976589679718 -1.8909258842468262 -1.619937777519226 -0.5910499691963196 0.18255166709423065 -3.647585153579712 0.00795896165072918 -2.5168585777282715 -1.0572186708450317 -1.0870680809020996 -1.4447665214538574 -0.809916615486145 -3.140737295150757 -0.2909591495990753 0.8203966021537781 0.17608220875263214 -0.7888531684875488 0.7242410182952881 0.511715829372406 -2.4467413425445557 -0.47806134819984436 -0.3626832067966461 -1.0236034393310547 -2.3519961833953857 1.0284804105758667 0.23407995700836182 0.2849310040473938 1.0242046117782593 -0.315286248922348 1.6167171001434326 0.5080485939979553 -1.3527090549468994 -2.2201812267303467 -0.7689080834388733 0.6921598315238953 0.5035110116004944 -2.341545820236206 0.5135699510574341 -2.8537795543670654 -5.758085250854492 0.21522529423236847 0.24916969239711761 1.0313142538070679 -3.5463221073150635 1.4054863452911377 0.4537877142429352 -1.6670085191726685 -1.5809199810028076 0.1646960824728012 -4.889827251434326 -0.4441770911216736 -0.28267043828964233 1.8688722848892212 -0.24153278768062592 0.4841068983078003 0.3928946554660797 0.4022037088871002 0.5455253720283508 0.41149231791496277 0.44895970821380615 1.3739384412765503 -0.09252391755580902 -2.054868221282959 3.3838024139404297 -3.5152668952941895 -5.2392096519470215 -2.3668406009674072 1.9595338106155396 1.4208507537841797 -0.02033609338104725 -1.185137391090393 -1.5648925304412842 -1.4437371492385864 -1.326900839805603 -1.7114953994750977 0.2780616283416748 -0.4072292149066925 0.1959913820028305 2.1976799964904785 -3.529819965362549 -0.8828218579292297 -1.495032787322998 -0.16071578860282898 0.18740318715572357 0.4469641447067261 -2.816209316253662 -0.1979358047246933 -0.8663198351860046 0.9262790679931641 -3.1533031463623047 0.32805031538009644 -2.3141567707061768 -1.4493604898452759 0.1733558624982834 -0.1647270768880844 -0.025071805343031883 1.6232041120529175 -0.5534618496894836 0.07342961430549622 1.269712209701538 -1.8883529901504517 -4.413444995880127 -3.6287786960601807 -2.2269599437713623 0.22792361676692963 -5.756336212158203 0.16969919204711914 -2.3609862327575684 -2.100071430206299 -0.45516055822372437 0.4006115794181824 -1.0632359981536865 -1.4695208072662354 -3.9806525707244873 0.144150972366333 0.30979475378990173 -0.4825820028781891 -1.111281394958496 0.8991416096687317 -0.4516269862651825 2.462934970855713 -2.4688613414764404 0.9352145791053772 -0.18122205138206482 -2.272034168243408 -2.6779751777648926 0.12632590532302856 -3.329801559448242 -0.5227091312408447 -2.5794804096221924 1.8023561239242554 -0.774797260761261 -1.01142418384552 -0.40944215655326843 -1.281214714050293 -0.24672575294971466 -0.8537676930427551 0.3614438772201538 -0.04776177927851677 -1.367004632949829 0.2762083411216736 -0.22203412652015686 -0.15448451042175293 0.5244205594062805 -0.3760437071323395 -0.9375838041305542 -0.49572014808654785 -0.8297576308250427 -0.6048158407211304 -0.19564643502235413 0.21638450026512146 -0.8904653191566467 0.35497796535491943 0.18400803208351135 -0.8351519703865051 -1.1619036197662354 -0.5661067962646484 -0.9017398357391357 -0.8732677102088928 0.3484046459197998 0.1904427707195282 0.07912946492433548 -0.2662079930305481 -0.628341794013977 -0.23972667753696442 -0.4251369833946228 -0.09732787311077118 -0.10211913287639618 -0.4157213270664215 -0.05025589466094971 -1.0489403009414673 -0.2695940434932709 -0.48417434096336365 -1.015462875366211 -0.12183447182178497 -0.7086445093154907 -0.6254786252975464 -0.6677767038345337 -0.2081417292356491 -0.481493204832077 -0.2973995506763458 0.11470004916191101 -0.23247790336608887 -0.10597595572471619 -0.8221028447151184 0.006268232129514217 0.364643394947052 0.36449870467185974 -0.537905216217041 -0.6207455396652222 -0.6172829270362854 -0.5932223796844482 -1.04783034324646 -0.47415125370025635 -0.1115439310669899 -0.18511612713336945 -0.3622392416000366 -0.33441978693008423 -0.3859279155731201 -0.11610032618045807 -0.05418192222714424 -0.48256319761276245 -0.19972175359725952 -0.5749238729476929 -0.18238279223442078 -0.19186988472938538 -0.08120132982730865 -0.014858657494187355 -0.3528653383255005 -0.4791167974472046 -0.005121546797454357 -0.5106030702590942 -0.1456456333398819 0.04859842360019684 -0.5166058540344238 -0.2118230015039444 -0.08341037482023239 -0.37302857637405396 0.019809141755104065 -0.39902645349502563 -0.31411081552505493 0.16025786101818085 -0.29827243089675903 -0.6328966617584229 -0.48425543308258057 -0.12786994874477386 -0.25382375717163086 -0.32721391320228577 -0.3212203085422516 -0.21011386811733246 -0.10491999983787537 -0.41779643297195435 -0.21372318267822266 -0.5294831395149231 -0.42322078347206116 -0.236789271235466 -0.3894234895706177 0.07987837493419647 -0.4595579206943512 0.0025943571235984564 -0.6396963000297546 -0.48546284437179565 -0.06516344845294952 -0.4530908167362213 -0.1800730973482132 -0.37020644545555115 -0.17487135529518127 -0.14749173820018768 -0.02463889867067337 -0.03235294297337532 -0.2778269648551941 -0.16365469992160797 -0.2809085547924042 -0.24955247342586517 -0.1911303550004959 -0.22031091153621674 0.02925189584493637 -0.0877276286482811 -0.1750200241804123 -0.3419400751590729 0.8401015996932983 0.2673133313655853 -0.2464849352836609 0.14946918189525604 0.27873778343200684 -0.5396182537078857 -1.0219967365264893 -0.8582761287689209 0.18386586010456085 -0.17928341031074524 0.18152379989624023 -0.16603821516036987 -0.4808698892593384 0.12185949832201004 -0.8209781646728516 0.09779525548219681 0.5294281244277954 0.9590247869491577 -0.20618201792240143 -0.01520756259560585 0.09375271946191788 0.2221870720386505 0.6992336511611938 -1.148397445678711 0.032850127667188644 -0.4400736391544342 0.047736864537000656 -0.3478245735168457 -0.12220077216625214 -0.7640597224235535 1.3211498260498047 -2.976517915725708 -0.038038186728954315 1.3031277656555176 0.18450401723384857 -2.40320086479187 0.7292819023132324 -2.335681915283203 -0.7358836531639099 -2.1423747539520264 1.8712022304534912 0.05304178223013878 -0.47683221101760864 0.46893760561943054 -0.463962584733963 -0.3403012454509735 -1.4042375087738037 -0.20311906933784485 0.19132789969444275 -0.7936246395111084 0.29487934708595276 0.1459604650735855 -0.8688213229179382 -1.5174744129180908 0.035164330154657364 0.07745532691478729 -1.065255045890808 1.517976999282837 2.3913447856903076 -3.760793924331665 -3.0041887760162354 1.0214823484420776 -0.012834249064326286 -1.2257039546966553 1.90528404712677 -1.0539504289627075 0.049327198415994644 -1.3731924295425415 -0.8920380473136902 1.0526912212371826 -1.115090012550354 -1.767613172531128 -2.2494757175445557 -1.2246309518814087 1.8704496622085571 -1.4551198482513428 -0.16318444907665253 -0.19172780215740204 -0.35807424783706665 -0.24577197432518005 -3.3700108528137207 -1.5884504318237305 -0.17780540883541107 0.2716407775878906 1.7025620937347412 -1.769562005996704 0.9580769538879395 -1.7080999612808228 0.3712160587310791 -0.36058494448661804 0.011749008670449257 0.991279125213623 0.15282998979091644 0.5577161312103271 -1.2473244667053223 -1.4185489416122437 1.9840508699417114 -0.19646501541137695 -0.37484243512153625 -2.1429555416107178 -0.8885065913200378 0.6167035698890686 -0.14740681648254395 -1.1092274188995361 0.08627067506313324 -1.2812526226043701 -0.8490819931030273 -0.7434234023094177 0.24975258111953735 -0.68841153383255 -0.3739211857318878 -0.004606111906468868 -0.6449278593063354 0.5448611974716187 -2.58370041847229 0.583134114742279 0.6383174657821655 0.2721545994281769 -0.6972176432609558 -1.5050984621047974 -2.287456750869751 -0.08087557554244995 -0.9991623759269714 0.8284165263175964 -1.4070954322814941 -2.01180100440979 2.139414072036743 -2.195310354232788 -0.7152988314628601 0.4991132915019989 0.8464823365211487 0.15880373120307922 -1.2494022846221924 0.2628866136074066 -1.6999762058258057 -0.04561617970466614 -1.5614345073699951 0.2646210491657257 0.4913119077682495 -0.24650061130523682 -2.3158249855041504 1.167299509048462 0.7148518562316895 -0.3051187992095947 0.9730042815208435 -1.1565169095993042 -1.8526184558868408 -0.06256610155105591 1.6271814107894897 -0.14725926518440247 -1.0386751890182495 0.04640383645892143 0.28547632694244385 -0.011825686320662498 -0.14483389258384705 0.25806933641433716 -0.49561548233032227 0.5943517684936523 0.3464251756668091 -0.0343523845076561 -0.5793546438217163 1.2313138246536255 0.5312891006469727 -1.5496060848236084 1.3309427499771118 -1.8623489141464233 -1.5224076509475708 0.5138766169548035 0.46298539638519287 0.959457516670227 0.17068910598754883 -0.4995872676372528 -0.2685356140136719 -1.0480728149414062 -0.40816766023635864 -1.436182975769043 0.29096928238868713 -2.588603973388672 0.0066230762749910355 0.48843666911125183 0.2502240836620331 -1.4530441761016846 0.216499924659729 -0.034873589873313904 -0.37946033477783203 -0.1624443084001541 -0.2267187237739563 -0.308434396982193 -0.21928837895393372 0.40976014733314514 -1.701276183128357 0.4170167148113251 0.036006126552820206 -3.243675470352173 1.3469804525375366 0.28694817423820496 -0.8224337100982666 0.5316120386123657 -0.5087529420852661 -0.6093307733535767 0.5611360669136047 -0.43876415491104126 0.3720603287220001 -1.6028705835342407 0.6767191886901855 -2.150207281112671 -1.8356178998947144 -1.0374915599822998 -2.0930559635162354 -1.2181850671768188 1.083076000213623 0.8482046723365784 -0.606804370880127 -1.3193447589874268 0.26882418990135193 -1.29008948802948 1.0869288444519043 0.8970261216163635 0.5319750308990479 1.188664197921753 0.6720829606056213 -1.1573457717895508 -1.0992790460586548 -0.9067832827568054 -0.43656688928604126 1.1666741371154785 -0.8703342080116272 0.4369412958621979 0.06674444675445557 -0.7674584984779358 0.04216674342751503 0.3827134072780609 -0.3493906557559967 -1.4955295324325562 0.5642891526222229 0.13308005034923553 -0.32208749651908875 -1.472508430480957 0.7411877512931824 1.2727800607681274 2.1972992420196533 0.313625305891037 0.7087302803993225 -1.643575668334961 0.21792320907115936 -4.386964321136475 -0.018733978271484375 0.43837589025497437 -0.8526378870010376 0.26062721014022827 -0.7577030062675476 0.5671870112419128 1.0433464050292969 0.7895842790603638 -0.536115288734436 -0.1430685818195343 -0.7984676957130432 -0.2123347669839859 -1.725412368774414 -0.2689989507198334 -0.15609261393547058 -0.4889049232006073 -0.26690980792045593 -1.3675916194915771 -0.641340434551239 -1.2234731912612915 1.7253128290176392 -0.2546301782131195 -1.2891590595245361 -0.1472538709640503 -1.3752697706222534 -0.3350953757762909 -1.1846696138381958 -1.3427417278289795 -0.8305081129074097 -1.2929675579071045 -1.8556658029556274 -1.3587968349456787 0.8741480112075806 -0.8875678777694702 -0.49594196677207947 -0.8751168251037598 -1.6685413122177124 -0.44361430406570435 -1.165410041809082 -1.2952888011932373 -1.3659732341766357 0.03750394657254219 -0.8622980713844299 -0.43905022740364075 1.066624402999878 -0.7267422676086426 -1.1070005893707275 -1.2862626314163208 -0.4217132329940796 0.585957407951355 1.0982906818389893 -0.6676948070526123 -1.0340921878814697 -0.10559908300638199 0.478330135345459 -0.003719749627634883 -1.7078102827072144 -0.38892918825149536 -0.19283971190452576 -3.076605796813965 -0.6758293509483337 -2.180370807647705 -0.973466694355011 0.09303715080022812 -0.017486318945884705 1.1627541780471802 -0.7760345935821533 -1.3746856451034546 -1.4872612953186035 -0.5008882284164429 -0.8824218511581421 1.1923632621765137 -0.5129006505012512 -0.3515411615371704 -0.39907532930374146 -0.1380394995212555 -0.30413395166397095 0.024569552391767502 0.08236135542392731 0.03891930729150772 -0.09053181111812592 -0.06877047568559647 0.1382245272397995 -0.22649362683296204 -0.37270793318748474 -0.33281245827674866 -0.19092430174350739 -0.15254078805446625 -0.19368372857570648 0.03995390236377716 -0.43415531516075134 -0.34984126687049866 -0.3705469071865082 -0.44567152857780457 -0.3654960095882416 -0.4048647880554199 -0.1924981325864792 -0.6410829424858093 -0.13254046440124512 -0.16334883868694305 -0.3939710557460785 -0.7453596591949463 -0.5396272540092468 -0.3635949492454529 -0.37081417441368103 -0.5817625522613525 0.15910683572292328 -0.13395529985427856 -0.21828289330005646 0.1278207004070282 -0.38495221734046936 -0.6269187927246094 -0.35279178619384766 0.1322113424539566 -0.44718825817108154 -0.19624097645282745 -0.11594026535749435 0.034065231680870056 -0.2685178518295288 -0.20231996476650238 -0.28023505210876465 0.053562507033348083 -0.2105737030506134 -0.36560407280921936 -0.3261253535747528 -0.3583599925041199 -0.2883972227573395 0.06300309300422668 -0.2271001636981964 -0.12597130239009857 -0.32582399249076843 -0.3584246337413788 -0.34710973501205444 -0.5872656106948853 -0.09431599080562592 -0.37358349561691284 0.036095649003982544 -2.6004083156585693 -4.220530033111572 0.5559694766998291 -0.4898783564567566 -0.28810107707977295 -1.1284843683242798 -2.3056044578552246 -1.5112777948379517 -0.4643138647079468 1.088722586631775 1.1006478071212769 -2.8486886024475098 1.2243177890777588 -1.497586727142334 -0.06323522329330444 1.7778180837631226 -8.204795837402344 1.3472856283187866 -0.8756412267684937 0.1465631127357483 0.6753412485122681 -0.795852780342102 -0.11480829119682312 1.1882033348083496 -0.9850041270256042 -0.7762962579727173 -2.8712034225463867 -1.5759446620941162 1.2808884382247925 -2.0713813304901123 0.2134944647550583 -0.7598922848701477 0.4589601755142212 0.6483121514320374 -1.1522207260131836 1.1443580389022827 -0.2693580985069275 1.2744886875152588 -1.2539503574371338 -7.367918014526367 1.9772391319274902 2.0894031524658203 -2.290804862976074 -2.392609119415283 1.2734215259552002 -1.3286778926849365 -0.34390100836753845 -0.4739682674407959 -0.9156685471534729 -0.6812595129013062 -1.8866305351257324 -0.39708665013313293 -1.7832332849502563 -2.326936960220337 -1.869782567024231 -1.0655269622802734 -2.8966939449310303 0.3314647376537323 -0.7779337167739868 -2.505746841430664 2.2370312213897705 -2.689121723175049 0.938997745513916 -0.23648524284362793 -0.4188762605190277 0.021910496056079865 0.5353419780731201 -2.1844680309295654 -1.5581988096237183 1.3041744232177734 0.18970124423503876 0.467914879322052 -0.17672668397426605 -1.6628843545913696 -0.054426442831754684 -1.676655650138855 -3.800743341445923 0.1693301796913147 -2.8104662895202637 -0.7299032211303711 -1.0163058042526245 -0.7299839854240417 2.1033103466033936 -2.332664728164673 -4.1343512535095215 0.6631239056587219 0.5514158010482788 -0.24901467561721802 0.8131589889526367 -2.054741382598877 -0.16912898421287537 0.17539839446544647 0.5847915410995483 -0.07779774814844131 1.0715426206588745 0.5050196647644043 -0.012354239821434021 -3.2925963401794434 -1.622874140739441 -3.3553061485290527 2.3207075595855713 0.988438606262207 -3.854785442352295 0.3631759583950043 0.26283499598503113 -0.4642767012119293 -1.2872838973999023 -2.2339112758636475 -4.063419342041016 -0.8755933046340942 0.15361493825912476 -1.6531548500061035 -0.7443207502365112 1.1750212907791138 1.2177740335464478 0.819979190826416 0.9552404880523682 -1.3130158185958862 -0.41836002469062805 -0.06115484982728958 -1.7324618101119995 -4.355471134185791 -0.5808889269828796 -0.2747540771961212 -0.5330911874771118 -1.542860746383667 -2.56793475151062 -1.1060035228729248 -1.6532829999923706 -4.415713310241699 -3.33105206489563 -1.7887828350067139 1.6991702318191528 -1.3988219499588013 0.6955874562263489 1.3828308582305908 0.2738291025161743 -1.2417807579040527 -0.21800971031188965 0.8011240363121033 -0.6455716490745544 0.29413554072380066 0.17475126683712006 1.11848783493042 -0.044218987226486206 0.7942482233047485 -1.9831633567810059 0.3408375680446625 -1.7845929861068726 -0.9080964922904968 1.0634104013442993 2.046476125717163 0.6596608757972717 -0.4976053237915039 1.097852349281311 -0.909564197063446 -1.9905198812484741 0.24192170798778534 0.9365226626396179 -2.6651458740234375 1.3888198137283325 -0.8927165269851685 -2.2079386711120605 -2.2206342220306396 -1.2566779851913452 -5.5379862785339355 0.11480478942394257 0.2902931571006775 -0.770196795463562 -0.6230790615081787 -1.2740626335144043 -0.7260851860046387 -1.8149794340133667 -0.7573003768920898 -1.4106450080871582 1.2159016132354736 0.39295849204063416 -0.3585256040096283 -0.9690606594085693 0.7534619569778442 0.0877280905842781 0.14056402444839478 -0.9577988982200623 2.521850347518921 0.4421568512916565 -1.5393357276916504 0.6120467782020569 -2.231955051422119 -0.8113791942596436 0.12425799667835236 0.7306965589523315 -2.097562313079834 0.7024760842323303 0.18629033863544464 2.1007821559906006 1.4877651929855347 0.4382694661617279 -0.8374733328819275 -2.911637544631958 -1.790242075920105 -0.16090314090251923 2.121476650238037 -3.4084715843200684 -0.7429155111312866 -0.33416321873664856 -2.691096067428589 0.721545398235321 1.208762764930725 -3.707076072692871 -2.404545307159424 -0.9769217371940613 -1.5098117589950562 -0.6452980637550354 -0.640482485294342 0.5117185711860657 -1.7761205434799194 -3.4540963172912598 -0.058366239070892334 0.9437146186828613 -2.8611111640930176 0.5381988286972046 0.4084809124469757 -1.019742488861084 0.8125582933425903 -2.2446060180664062 -4.164342880249023 0.86922687292099 -0.04176205396652222 -0.4520784616470337 -1.4678504467010498 -2.619001626968384 -1.2593122720718384 -1.4227174520492554 -0.8719605803489685 0.6005662083625793 -0.0778573751449585 -6.16659688949585 -1.042891263961792 0.2394406646490097 -1.0702598094940186 -1.0445091724395752 -0.2403813600540161 0.8949918150901794 -1.5617626905441284 -2.2660138607025146 -2.480712413787842 -1.379706621170044 -1.2848501205444336 0.1802142709493637 -1.8132997751235962 -0.2916830778121948 -4.280234336853027 0.6117897629737854 -3.3554601669311523 0.47014302015304565 -1.1382774114608765 -0.23367361724376678 -0.7399506568908691 0.29791590571403503 1.0452587604522705 0.1318396031856537 -0.48384368419647217 -1.0232752561569214 -0.7080236673355103 -2.2331080436706543 0.32559558749198914 0.4006919860839844 -0.0035424642264842987 2.612783432006836 -1.6176737546920776 -0.17009924352169037 -5.288790702819824 0.30943936109542847 -0.2856963872909546 -1.739105224609375 0.32067012786865234 0.050675153732299805 1.6556652784347534 -1.4126019477844238 0.025218861177563667 -1.5611799955368042 -1.096439003944397 -0.3610742390155792 0.26270854473114014 -1.0197488069534302 0.4278351962566376 0.397489994764328 -1.2061097621917725 -0.39774999022483826 -1.6402462720870972 0.46585217118263245 -0.503335177898407 -0.718817412853241 0.5119009613990784 0.21412749588489532 0.9598170518875122 -1.3816008567810059 -0.08372136950492859 0.23005519807338715 -0.8436984419822693 -0.07859393209218979 1.713504433631897 -0.37308844923973083 0.12986482679843903 0.6143313050270081 -1.6579302549362183 0.787325382232666 -2.2195184230804443 0.21782268583774567 -0.009928627870976925 1.5565528869628906 -4.365340709686279 -0.4910633862018585 -2.059451103210449 0.21320469677448273 2.170355796813965 0.06817925721406937 0.4970548748970032 -1.69950270652771 0.763325572013855 1.5992939472198486 -2.207662343978882 0.46280238032341003 1.1445883512496948 -2.445650815963745 -0.3132311999797821 -0.4113330841064453 -1.3342790603637695 -0.909770667552948 -1.7663531303405762 -3.0875492095947266 0.05593462660908699 0.7090592384338379 -3.2866287231445312 -0.18750815093517303 -0.3924851715564728 3.2374677658081055 -1.4770557880401611 -2.146869421005249 -1.3147482872009277 -1.9803462028503418 -0.4678093194961548 -0.29345089197158813 -6.0511064529418945 -0.45811620354652405 -3.59812331199646 -1.4250867366790771 -0.9312941431999207 -0.7750037908554077 1.2080026865005493 -1.8306944370269775 -1.2256311178207397 -0.41334471106529236 0.4259551167488098 1.4539103507995605 0.2000560760498047 -0.9078269600868225 -0.16377265751361847 1.236363172531128 0.8993299603462219 -4.819532871246338 1.5258641242980957 -0.07984138280153275 -0.2914767861366272 -0.07538996636867523 0.5997493863105774 -0.09088370203971863 1.1040449142456055 0.7581383585929871 0.17438793182373047 0.49341878294944763 0.10941506922245026 -0.7467986941337585 -1.215397596359253 -2.0358386039733887 0.9394170641899109 -3.620851516723633 0.3702890872955322 1.9344351291656494 -0.24187663197517395 -2.115962028503418 -0.3334719240665436 -1.190262794494629 -1.7508082389831543 -0.6785898208618164 1.4427645206451416 -2.989154100418091 -0.0023197373375296593 -1.046360731124878 -3.695056915283203 -3.0265676975250244 -1.2422343492507935 0.41075122356414795 -1.6303095817565918 -0.24052298069000244 -1.8588849306106567 -1.4486714601516724 -0.11635611206293106 1.1668082475662231 1.1442924737930298 -0.6676625609397888 0.6258822083473206 -1.3573812246322632 1.2214462757110596 -0.7166550755500793 -2.8412694931030273 -1.702813744544983 -0.1113286092877388 1.8359863758087158 0.2321242392063141 -3.4531466960906982 0.11082020401954651 1.0709528923034668 -0.6231335401535034 -0.1582707315683365 0.004836012609302998 -1.183518648147583 -0.8954743146896362 0.0744917243719101 -0.4725986421108246 0.12867940962314606 -1.5821245908737183 -0.1416529268026352 -0.2008165866136551 -1.2199182510375977 0.2589395344257355 -1.4619629383087158 -0.45626717805862427 -0.4415762722492218 1.099076747894287 1.7030383348464966 -3.439401626586914 0.6280125975608826 -1.4119311571121216 0.41366371512413025 -0.0849464014172554 -1.2553858757019043 2.2148447036743164 0.7298463582992554 0.4686203598976135 -3.229804039001465 0.672320544719696 -0.8290825486183167 -0.40086600184440613 0.9733433127403259 -1.2615641355514526 0.5364761352539062 -3.5377204418182373 -3.574323892593384 -0.5470771789550781 -4.035650730133057 -0.13670134544372559 -0.23590630292892456 -3.871833086013794 0.04804767668247223 -4.337153911590576 -0.658112645149231 -3.156743049621582 0.1473972648382187 1.122275948524475 0.3252391517162323 -5.017637252807617 2.685011386871338 0.9675006866455078 -0.37856045365333557 -0.903443455696106 -1.1562775373458862 -2.4710991382598877 -0.31682226061820984 0.36786025762557983 -0.040490876883268356 1.459431529045105 -1.5989809036254883 -0.02870420552790165 1.3393203020095825 -0.40232789516448975 -0.17910036444664001 -0.4357815086841583 -2.4380533695220947 0.18757392466068268 1.5298004150390625 1.2177841663360596 -3.496314287185669 -0.5807788968086243 -1.1587567329406738 0.33664095401763916 -2.3364062309265137 1.2463793754577637 0.14708150923252106 -0.8234230279922485 1.123021125793457 0.9628754258155823 -2.413618564605713 -0.5475724339485168 0.48332422971725464 0.029722662642598152 1.1991779804229736 0.5379779934883118 -0.3484177589416504 -0.46848469972610474 -3.915010929107666 1.510848045349121 0.45846113562583923 0.3165757358074188 -0.15362390875816345 -0.685759961605072 -0.038806937634944916 1.3427026271820068 0.6096264123916626 -0.8014822602272034 0.2931620478630066 -4.4193830490112305 -0.9773191213607788 -2.2619569301605225 -1.924328327178955 0.36016646027565 1.1218119859695435 -0.6803264617919922 -3.0442299842834473 0.5748090147972107 -1.099618911743164 -1.8289350271224976 0.3969272971153259 0.24818693101406097 -1.9376581907272339 0.20161080360412598 1.1471376419067383 -0.49245819449424744 -2.032459259033203 -0.5084366798400879 -5.57190465927124 0.7285053133964539 -0.9640768766403198 0.5018793940544128 1.5359399318695068 1.1564470529556274 1.3918488025665283 -1.9752286672592163 -0.6025670170783997 -0.4962333142757416 -0.2963481843471527 -2.184190511703491 -0.09218192845582962 -3.7044525146484375 -2.7956926822662354 1.2362838983535767 1.1077476739883423 0.9671921133995056 -1.3212904930114746 -0.7163868546485901 -2.2169551849365234 1.134558916091919 -2.1510417461395264 -0.11804602295160294 0.3375122547149658 0.27867668867111206 -1.1728471517562866 -1.8154765367507935 -2.6256563663482666 3.020167589187622 -0.29661357402801514 1.4885610342025757 0.22898650169372559 -2.2636423110961914 0.31157660484313965 -1.9499714374542236 -1.6273350715637207 -0.7821887731552124 0.5899863839149475 -0.917915940284729 0.27538755536079407 1.673214316368103 -1.1318904161453247 0.6049213409423828 0.6390218138694763 -1.4479175806045532 -0.03444264456629753 -2.9272053241729736 0.9461100101470947 -0.17991065979003906 -2.7930562496185303 -2.111804485321045 -1.1060473918914795 -0.6201603412628174 0.3577468991279602 -1.7613123655319214 -2.0536983013153076 2.6252779960632324 -0.5262393355369568 1.30307137966156 -0.5521049499511719 0.720742404460907 -1.0238479375839233 0.16779311001300812 0.6796646118164062 -2.1937732696533203 -1.7248272895812988 -0.6511510014533997 1.4903826713562012 0.7384692430496216 0.8434980511665344 -2.95418119430542 0.07892259210348129 -3.591593027114868 -0.6607223153114319 -0.14814510941505432 -4.185647010803223 -3.220503330230713 -5.185191631317139 -0.45532169938087463 1.3886512517929077 0.8833266496658325 -2.167029619216919 0.5311146974563599 0.16486310958862305 -1.5809346437454224 -3.4852633476257324 -1.4931373596191406 1.1102848052978516 -3.828972339630127 0.18339979648590088 0.37491345405578613 0.3414662480354309 -3.7153983116149902 -1.352278232574463 -6.244932651519775 -0.523816704750061 -3.480689525604248 0.9985831379890442 -0.15426231920719147 -1.7568113803863525 -1.0124406814575195 0.33223751187324524 -1.3148431777954102 0.2695654630661011 0.9630183577537537 1.1755305528640747 -0.3602105677127838 -0.41666650772094727 -0.13262934982776642 -2.9409520626068115 -1.51344633102417 -3.0318706035614014 -0.35872533917427063 -3.2554128170013428 -2.293424367904663 1.7045339345932007 -0.47536206245422363 0.008713610470294952 0.5452231764793396 -2.8789725303649902 1.996217966079712 0.3516075015068054 0.1011747270822525 -2.064058303833008 0.2108079344034195 0.4470193088054657 -0.5353592038154602 0.27389898896217346 -0.6020148992538452 0.6336134672164917 0.5657998323440552 1.0341136455535889 1.1728543043136597 0.6656342148780823 -1.7692567110061646 1.6593745946884155 -3.4667162895202637 1.0176513195037842 -3.3224635124206543 -1.9109128713607788 -1.0944421291351318 0.970380961894989 -0.3025999963283539 -0.8101357817649841 -1.22391676902771 0.3318045139312744 0.6935122013092041 -0.4064086973667145 -1.5050029754638672 -2.024137020111084 -1.1855958700180054 -1.7985957860946655 -1.5565063953399658 0.12098169326782227 0.29300224781036377 -0.6900573372840881 0.5693074464797974 -1.771652340888977 -0.42741498351097107 0.49175137281417847 -1.1610056161880493 -2.195493459701538 1.2938942909240723 0.20257367193698883 1.6230411529541016 -0.3688647449016571 0.3285224735736847 -2.678468942642212 0.05842886492609978 0.983121395111084 -4.125088214874268 -0.5195906162261963 -0.6773014664649963 -0.16330586373806 0.03482915461063385 -0.1005268543958664 -0.1536804884672165 -0.07244773954153061 -0.0018073823302984238 -0.10317207872867584 -0.08509229123592377 -0.06739185005426407 -0.13753147423267365 -0.003157005412504077 0.06657877564430237 -0.09163681417703629 -0.04214157164096832 -0.1802307665348053 -0.05923290550708771 -0.13780905306339264 -0.12259074300527573 -0.06789922714233398 -0.2705572843551636 0.11562210321426392 -0.2631966769695282 -0.1525462567806244 0.09363362193107605 -0.3240245282649994 -0.15897051990032196 -0.0708550289273262 -0.25167152285575867 -0.13611985743045807 -0.05646273493766785 -0.14855188131332397 -0.16833163797855377 -0.09486425668001175 -0.0513797253370285 -0.18210577964782715 -0.03972693532705307 -0.15914210677146912 0.028798846527934074 -0.13930071890354156 -0.2463591992855072 -0.1163964718580246 -0.09075403958559036 -0.126734659075737 -0.29640212655067444 -0.22149120271205902 -0.12301517277956009 -0.05587540566921234 -0.27888548374176025 -0.08439528942108154 -0.155912846326828 -0.10663165152072906 -0.27774134278297424 -0.1848180890083313 -0.0032571107149124146 -0.009776324033737183 -0.09992434084415436 -0.07805266976356506 -0.07674729079008102 0.04857994616031647 -0.3038894236087799 0.0446615070104599 -0.06796656548976898 -0.16161951422691345 -0.06649729609489441 0.07611950486898422 -0.8919908404350281 0.43638429045677185 0.4348975718021393 -2.306119441986084 -2.5301549434661865 1.4833927154541016 -1.4121184349060059 -3.1632773876190186 0.03781220689415932 -1.9723414182662964 -3.43558931350708 -0.28471794724464417 -0.13331864774227142 -0.7763767838478088 1.015488862991333 -0.32430046796798706 -0.2752862870693207 -0.5643092393875122 -1.4313604831695557 0.9728960990905762 -1.387189269065857 0.5575666427612305 -1.7813396453857422 -0.12366648018360138 -2.877410411834717 0.10084391385316849 0.016552062705159187 -0.9178188443183899 -1.122489094734192 -1.4448020458221436 1.448038101196289 0.25433728098869324 0.04328291863203049 -1.5213091373443604 1.257457971572876 -3.5514912605285645 1.5027331113815308 -1.7549681663513184 -1.237625002861023 -0.8818631172180176 1.5731490850448608 0.5470516085624695 0.5435160398483276 -0.6278250217437744 -0.7714957594871521 -0.040079887956380844 1.3970917463302612 -0.1762557476758957 -0.80306476354599 -0.09000010043382645 1.5691927671432495 1.2016829252243042 -0.7434749007225037 -0.615437924861908 -1.074080467224121 -0.05660675838589668 1.043684482574463 -2.7979280948638916 -2.117764711380005 -0.1908901482820511 -2.883023738861084 -1.1724730730056763 0.14084820449352264 1.3770179748535156 -0.028969908133149147 -0.6956935524940491 -0.3283091187477112 -0.01415262371301651 -1.9203147888183594 1.489073395729065 1.8429548740386963 -0.05814403295516968 0.805327296257019 -1.7683968544006348 1.292376160621643 -0.2408980131149292 1.4831359386444092 -1.2874774932861328 1.6362193822860718 0.05304676294326782 -2.3633601665496826 0.12142772227525711 1.78744637966156 -0.8006336688995361 -1.0939562320709229 0.11584710329771042 -1.6031231880187988 0.4733715057373047 0.14851613342761993 0.11236539483070374 -2.230053663253784 0.2431519329547882 -0.22976884245872498 0.7567242383956909 -0.7286287546157837 0.5578195452690125 0.8946443796157837 -2.342787265777588 -0.466917484998703 -0.24599485099315643 -4.428627967834473 -0.18089647591114044 -0.7168489098548889 0.38970425724983215 0.8215270042419434 -2.89190673828125 0.9239092469215393 -0.35707640647888184 0.20629571378231049 0.7170922160148621 -1.7832568883895874 0.06522518396377563 1.602810263633728 -0.5755149126052856 -1.757537841796875 -0.2754492461681366 1.8384640216827393 -0.14616218209266663 -0.470462441444397 -0.669106125831604 -0.100730299949646 -1.0681016445159912 1.7616783380508423 2.0340211391448975 0.31233322620391846 1.7766587734222412 -0.8755205869674683 -1.2774893045425415 -0.6820324063301086 -0.939507246017456 0.31582391262054443 -0.3548547923564911 -0.41013091802597046 -0.6468433737754822 -0.7071771621704102 -0.29036208987236023 -0.5243747234344482 -0.42837077379226685 -0.28894373774528503 -0.4500197470188141 -0.019671782851219177 -0.8106818199157715 0.4248923659324646 -0.14873027801513672 -1.0149259567260742 -0.7929378151893616 -0.41118335723876953 -1.302907109260559 -0.7233380675315857 -0.9688360691070557 -1.2257804870605469 -0.13058052957057953 -0.36918044090270996 -0.9994720816612244 -0.7583452463150024 -0.3708505630493164 -0.46976974606513977 -0.3557443618774414 -0.8152496218681335 -0.36396434903144836 -0.14936378598213196 0.6286500692367554 -0.4703769087791443 -0.24346737563610077 -0.7291154265403748 -0.10870304703712463 -0.4734650254249573 0.07747068256139755 0.043612122535705566 0.21853753924369812 -0.9304519891738892 -0.75053471326828 -1.1159186363220215 -0.047192059457302094 -0.1780058592557907 -0.8410424590110779 -0.013064373284578323 -0.6014844179153442 -0.5746815204620361 -0.5058054327964783 -0.5934456586837769 -0.32426121830940247 -0.20491242408752441 -0.027961812913417816 -0.5007720589637756 -0.4216189384460449 -0.09904724359512329 -1.0544768571853638 -0.39411839842796326 0.07893228530883789 -0.8796858191490173 -0.020095065236091614 0.7672218084335327 0.2034304141998291 1.8341047763824463 -1.7431257963180542 1.2337013483047485 0.43937909603118896 -2.1725642681121826 0.42725664377212524 0.8204985857009888 -0.1760309487581253 0.1359758973121643 -1.3971315622329712 0.7388485074043274 -0.8612015843391418 -0.0005796146579086781 -0.6381868720054626 0.06119842827320099 -1.007263422012329 -1.0172407627105713 -1.5153058767318726 0.16638852655887604 -0.018720781430602074 0.6612305045127869 -0.7338236570358276 0.380842924118042 -0.4989292621612549 -1.8880645036697388 0.37137123942375183 -0.10338634252548218 0.7791053056716919 -0.2791774272918701 0.2966705560684204 -0.7238379716873169 1.2734177112579346 -0.8275935053825378 0.1834818571805954 0.08070717006921768 -2.1740267276763916 2.1388700008392334 -1.0677785873413086 -1.1572232246398926 -0.5683999061584473 0.4716077148914337 -0.3606175184249878 -1.399320363998413 1.2544257640838623 0.08149852603673935 0.5023581385612488 -4.756354331970215 -0.9094367623329163 -2.669534921646118 -1.7487404346466064 1.5790032148361206 -1.0549488067626953 0.4571959674358368 -0.30947041511535645 -2.13348650932312 -0.400449275970459 0.5547775626182556 1.3447494506835938 -2.044097661972046 -0.9589274525642395 0.108489491045475 -0.2814439535140991 0.31209275126457214 -0.5925026535987854 -5.371901512145996 -1.7736358642578125 -1.1342644691467285 0.22181415557861328 0.6550276875495911 -3.5004475116729736 2.906965732574463 -1.6804144382476807 0.3235880434513092 -1.8815363645553589 0.1550711989402771 -2.952577829360962 0.4299640655517578 -1.023921012878418 -0.4660020172595978 0.4266432225704193 -2.136669397354126 -1.6066882610321045 0.37882208824157715 0.44581732153892517 -1.0399731397628784 0.018747473135590553 -1.2913944721221924 1.849801778793335 -0.6806415915489197 0.2876051366329193 -4.808399677276611 